5 81 -124 56 
62 41 3 101 
125 30 -121 89 
-124 -117 106 10 

-5 99 6 18 
94 -6 -105 67 
-110 -72 36 7 
-41 -34 -127 109 

-17 -95 72 -124 
-123 -93 -115 80 
119 31 0 -112 
54 -20 58 1 

94 82 3 -117 
-102 119 85 -32 
125 79 -74 10 
10 -6 65 -40 

-60 -116 119 39 
-57 79 111 110 
92 -74 16 -36 
102 -51 116 -127 

99 68 110 106 
-53 10 -65 39 
109 -73 80 87 
113 -4 -99 -40 

-77 122 24 4 
-62 -77 -44 -3 
52 -4 -59 106 
8 2 -112 -25 

-50 20 -10 19 
-123 -43 -102 -16 
-50 -50 -55 -28 
-48 13 -36 -126 


5 81 -124 56 
62 41 3 101 
125 30 -121 89 
-124 -117 106 10 

-5 99 6 18 
94 -6 -105 67 
-110 -72 36 7 
-41 -34 -127 109 

-17 -95 72 -124 
-123 -93 -115 80 
119 31 0 -112 
54 -20 58 1 

94 82 3 -117 
-102 119 85 -32 
125 79 -74 10 
10 -6 65 -40 

-60 -116 119 39 
-57 79 111 110 
92 -74 16 -36 
102 -51 116 -127 

99 68 110 106 
-53 10 -65 39 
109 -73 80 87 
113 -4 -99 -40 

-77 122 24 4 
-62 -77 -44 -3 
52 -4 -59 106 
8 2 -112 -25 

-50 20 -10 19 
-123 -43 -102 -16 
-50 -50 -55 -28 
-48 13 -36 -126 


5 81 -124 56 
62 41 3 101 
125 30 -121 89 
-124 -117 106 10 

-5 99 6 18 
94 -6 -105 67 
-110 -72 36 7 
-41 -34 -127 109 

-17 -95 72 -124 
-123 -93 -115 80 
119 31 0 -112 
54 -20 58 1 

94 82 3 -117 
-102 119 85 -32 
125 79 -74 10 
10 -6 65 -40 

-60 -116 119 39 
-57 79 111 110 
92 -74 16 -36 
102 -51 116 -127 

99 68 110 106 
-53 10 -65 39 
109 -73 80 87 
113 -4 -99 -40 

-77 122 24 4 
-62 -77 -44 -3 
52 -4 -59 106 
8 2 -112 -25 

-50 20 -10 19 
-123 -43 -102 -16 
-50 -50 -55 -28 
-48 13 -36 -126 


5 81 -124 56 
62 41 3 101 
125 30 -121 89 
-124 -117 106 10 

-5 99 6 18 
94 -6 -105 67 
-110 -72 36 7 
-41 -34 -127 109 

-17 -95 72 -124 
-123 -93 -115 80 
119 31 0 -112 
54 -20 58 1 

94 82 3 -117 
-102 119 85 -32 
125 79 -74 10 
10 -6 65 -40 

-60 -116 119 39 
-57 79 111 110 
92 -74 16 -36 
102 -51 116 -127 

99 68 110 106 
-53 10 -65 39 
109 -73 80 87 
113 -4 -99 -40 

-77 122 24 4 
-62 -77 -44 -3 
52 -4 -59 106 
8 2 -112 -25 

-50 20 -10 19 
-123 -43 -102 -16 
-50 -50 -55 -28 
-48 13 -36 -126 



5 81 -124 56 
62 41 3 101 
125 30 -121 89 
-124 -117 106 10 

-5 99 6 18 
94 -6 -105 67 
-110 -72 36 7 
-41 -34 -127 109 

-17 -95 72 -124 
-123 -93 -115 80 
119 31 0 -112 
54 -20 58 1 

94 82 3 -117 
-102 119 85 -32 
125 79 -74 10 
10 -6 65 -40 

-60 -116 119 39 
-57 79 111 110 
92 -74 16 -36 
102 -51 116 -127 

99 68 110 106 
-53 10 -65 39 
109 -73 80 87 
113 -4 -99 -40 

-77 122 24 4 
-62 -77 -44 -3 
52 -4 -59 106 
8 2 -112 -25 

-50 20 -10 19 
-123 -43 -102 -16 
-50 -50 -55 -28 
-48 13 -36 -126 


5 81 -124 56 
62 41 3 101 
125 30 -121 89 
-124 -117 106 10 

-5 99 6 18 
94 -6 -105 67 
-110 -72 36 7 
-41 -34 -127 109 

-17 -95 72 -124 
-123 -93 -115 80 
119 31 0 -112 
54 -20 58 1 

94 82 3 -117 
-102 119 85 -32 
125 79 -74 10 
10 -6 65 -40 

-60 -116 119 39 
-57 79 111 110 
92 -74 16 -36 
102 -51 116 -127 

99 68 110 106 
-53 10 -65 39 
109 -73 80 87 
113 -4 -99 -40 

-77 122 24 4 
-62 -77 -44 -3 
52 -4 -59 106 
8 2 -112 -25 

-50 20 -10 19 
-123 -43 -102 -16 
-50 -50 -55 -28 
-48 13 -36 -126 


5 81 -124 56 
62 41 3 101 
125 30 -121 89 
-124 -117 106 10 

-5 99 6 18 
94 -6 -105 67 
-110 -72 36 7 
-41 -34 -127 109 

-17 -95 72 -124 
-123 -93 -115 80 
119 31 0 -112 
54 -20 58 1 

94 82 3 -117 
-102 119 85 -32 
125 79 -74 10 
10 -6 65 -40 

-60 -116 119 39 
-57 79 111 110 
92 -74 16 -36 
102 -51 116 -127 

99 68 110 106 
-53 10 -65 39 
109 -73 80 87 
113 -4 -99 -40 

-77 122 24 4 
-62 -77 -44 -3 
52 -4 -59 106 
8 2 -112 -25 

-50 20 -10 19 
-123 -43 -102 -16 
-50 -50 -55 -28 
-48 13 -36 -126 


5 81 -124 56 
62 41 3 101 
125 30 -121 89 
-124 -117 106 10 

-5 99 6 18 
94 -6 -105 67 
-110 -72 36 7 
-41 -34 -127 109 

-17 -95 72 -124 
-123 -93 -115 80 
119 31 0 -112 
54 -20 58 1 

94 82 3 -117 
-102 119 85 -32 
125 79 -74 10 
10 -6 65 -40 

-60 -116 119 39 
-57 79 111 110 
92 -74 16 -36 
102 -51 116 -127 

99 68 110 106 
-53 10 -65 39 
109 -73 80 87 
113 -4 -99 -40 

-77 122 24 4 
-62 -77 -44 -3 
52 -4 -59 106 
8 2 -112 -25 

-50 20 -10 19 
-123 -43 -102 -16 
-50 -50 -55 -28 
-48 13 -36 -126 



5 81 -124 56 
62 41 3 101 
125 30 -121 89 
-124 -117 106 10 

-5 99 6 18 
94 -6 -105 67 
-110 -72 36 7 
-41 -34 -127 109 

-17 -95 72 -124 
-123 -93 -115 80 
119 31 0 -112 
54 -20 58 1 

94 82 3 -117 
-102 119 85 -32 
125 79 -74 10 
10 -6 65 -40 

-60 -116 119 39 
-57 79 111 110 
92 -74 16 -36 
102 -51 116 -127 

99 68 110 106 
-53 10 -65 39 
109 -73 80 87 
113 -4 -99 -40 

-77 122 24 4 
-62 -77 -44 -3 
52 -4 -59 106 
8 2 -112 -25 

-50 20 -10 19 
-123 -43 -102 -16 
-50 -50 -55 -28 
-48 13 -36 -126 


5 81 -124 56 
62 41 3 101 
125 30 -121 89 
-124 -117 106 10 

-5 99 6 18 
94 -6 -105 67 
-110 -72 36 7 
-41 -34 -127 109 

-17 -95 72 -124 
-123 -93 -115 80 
119 31 0 -112 
54 -20 58 1 

94 82 3 -117 
-102 119 85 -32 
125 79 -74 10 
10 -6 65 -40 

-60 -116 119 39 
-57 79 111 110 
92 -74 16 -36 
102 -51 116 -127 

99 68 110 106 
-53 10 -65 39 
109 -73 80 87 
113 -4 -99 -40 

-77 122 24 4 
-62 -77 -44 -3 
52 -4 -59 106 
8 2 -112 -25 

-50 20 -10 19 
-123 -43 -102 -16 
-50 -50 -55 -28 
-48 13 -36 -126 


5 81 -124 56 
62 41 3 101 
125 30 -121 89 
-124 -117 106 10 

-5 99 6 18 
94 -6 -105 67 
-110 -72 36 7 
-41 -34 -127 109 

-17 -95 72 -124 
-123 -93 -115 80 
119 31 0 -112 
54 -20 58 1 

94 82 3 -117 
-102 119 85 -32 
125 79 -74 10 
10 -6 65 -40 

-60 -116 119 39 
-57 79 111 110 
92 -74 16 -36 
102 -51 116 -127 

99 68 110 106 
-53 10 -65 39 
109 -73 80 87 
113 -4 -99 -40 

-77 122 24 4 
-62 -77 -44 -3 
52 -4 -59 106 
8 2 -112 -25 

-50 20 -10 19 
-123 -43 -102 -16 
-50 -50 -55 -28 
-48 13 -36 -126 


5 81 -124 56 
62 41 3 101 
125 30 -121 89 
-124 -117 106 10 

-5 99 6 18 
94 -6 -105 67 
-110 -72 36 7 
-41 -34 -127 109 

-17 -95 72 -124 
-123 -93 -115 80 
119 31 0 -112 
54 -20 58 1 

94 82 3 -117 
-102 119 85 -32 
125 79 -74 10 
10 -6 65 -40 

-60 -116 119 39 
-57 79 111 110 
92 -74 16 -36 
102 -51 116 -127 

99 68 110 106 
-53 10 -65 39 
109 -73 80 87 
113 -4 -99 -40 

-77 122 24 4 
-62 -77 -44 -3 
52 -4 -59 106 
8 2 -112 -25 

-50 20 -10 19 
-123 -43 -102 -16 
-50 -50 -55 -28 
-48 13 -36 -126 



5 81 -124 56 
62 41 3 101 
125 30 -121 89 
-124 -117 106 10 

-5 99 6 18 
94 -6 -105 67 
-110 -72 36 7 
-41 -34 -127 109 

-17 -95 72 -124 
-123 -93 -115 80 
119 31 0 -112 
54 -20 58 1 

94 82 3 -117 
-102 119 85 -32 
125 79 -74 10 
10 -6 65 -40 

-60 -116 119 39 
-57 79 111 110 
92 -74 16 -36 
102 -51 116 -127 

99 68 110 106 
-53 10 -65 39 
109 -73 80 87 
113 -4 -99 -40 

-77 122 24 4 
-62 -77 -44 -3 
52 -4 -59 106 
8 2 -112 -25 

-50 20 -10 19 
-123 -43 -102 -16 
-50 -50 -55 -28 
-48 13 -36 -126 


5 81 -124 56 
62 41 3 101 
125 30 -121 89 
-124 -117 106 10 

-5 99 6 18 
94 -6 -105 67 
-110 -72 36 7 
-41 -34 -127 109 

-17 -95 72 -124 
-123 -93 -115 80 
119 31 0 -112 
54 -20 58 1 

94 82 3 -117 
-102 119 85 -32 
125 79 -74 10 
10 -6 65 -40 

-60 -116 119 39 
-57 79 111 110 
92 -74 16 -36 
102 -51 116 -127 

99 68 110 106 
-53 10 -65 39 
109 -73 80 87 
113 -4 -99 -40 

-77 122 24 4 
-62 -77 -44 -3 
52 -4 -59 106 
8 2 -112 -25 

-50 20 -10 19 
-123 -43 -102 -16 
-50 -50 -55 -28 
-48 13 -36 -126 


5 81 -124 56 
62 41 3 101 
125 30 -121 89 
-124 -117 106 10 

-5 99 6 18 
94 -6 -105 67 
-110 -72 36 7 
-41 -34 -127 109 

-17 -95 72 -124 
-123 -93 -115 80 
119 31 0 -112 
54 -20 58 1 

94 82 3 -117 
-102 119 85 -32 
125 79 -74 10 
10 -6 65 -40 

-60 -116 119 39 
-57 79 111 110 
92 -74 16 -36 
102 -51 116 -127 

99 68 110 106 
-53 10 -65 39 
109 -73 80 87 
113 -4 -99 -40 

-77 122 24 4 
-62 -77 -44 -3 
52 -4 -59 106 
8 2 -112 -25 

-50 20 -10 19 
-123 -43 -102 -16 
-50 -50 -55 -28 
-48 13 -36 -126 


5 81 -124 56 
62 41 3 101 
125 30 -121 89 
-124 -117 106 10 

-5 99 6 18 
94 -6 -105 67 
-110 -72 36 7 
-41 -34 -127 109 

-17 -95 72 -124 
-123 -93 -115 80 
119 31 0 -112 
54 -20 58 1 

94 82 3 -117 
-102 119 85 -32 
125 79 -74 10 
10 -6 65 -40 

-60 -116 119 39 
-57 79 111 110 
92 -74 16 -36 
102 -51 116 -127 

99 68 110 106 
-53 10 -65 39 
109 -73 80 87 
113 -4 -99 -40 

-77 122 24 4 
-62 -77 -44 -3 
52 -4 -59 106 
8 2 -112 -25 

-50 20 -10 19 
-123 -43 -102 -16 
-50 -50 -55 -28 
-48 13 -36 -126 



5 81 -124 56 
62 41 3 101 
125 30 -121 89 
-124 -117 106 10 

-5 99 6 18 
94 -6 -105 67 
-110 -72 36 7 
-41 -34 -127 109 

-17 -95 72 -124 
-123 -93 -115 80 
119 31 0 -112 
54 -20 58 1 

94 82 3 -117 
-102 119 85 -32 
125 79 -74 10 
10 -6 65 -40 

-60 -116 119 39 
-57 79 111 110 
92 -74 16 -36 
102 -51 116 -127 

99 68 110 106 
-53 10 -65 39 
109 -73 80 87 
113 -4 -99 -40 

-77 122 24 4 
-62 -77 -44 -3 
52 -4 -59 106 
8 2 -112 -25 

-50 20 -10 19 
-123 -43 -102 -16 
-50 -50 -55 -28 
-48 13 -36 -126 


5 81 -124 56 
62 41 3 101 
125 30 -121 89 
-124 -117 106 10 

-5 99 6 18 
94 -6 -105 67 
-110 -72 36 7 
-41 -34 -127 109 

-17 -95 72 -124 
-123 -93 -115 80 
119 31 0 -112 
54 -20 58 1 

94 82 3 -117 
-102 119 85 -32 
125 79 -74 10 
10 -6 65 -40 

-60 -116 119 39 
-57 79 111 110 
92 -74 16 -36 
102 -51 116 -127 

99 68 110 106 
-53 10 -65 39 
109 -73 80 87 
113 -4 -99 -40 

-77 122 24 4 
-62 -77 -44 -3 
52 -4 -59 106 
8 2 -112 -25 

-50 20 -10 19 
-123 -43 -102 -16 
-50 -50 -55 -28 
-48 13 -36 -126 


5 81 -124 56 
62 41 3 101 
125 30 -121 89 
-124 -117 106 10 

-5 99 6 18 
94 -6 -105 67 
-110 -72 36 7 
-41 -34 -127 109 

-17 -95 72 -124 
-123 -93 -115 80 
119 31 0 -112 
54 -20 58 1 

94 82 3 -117 
-102 119 85 -32 
125 79 -74 10 
10 -6 65 -40 

-60 -116 119 39 
-57 79 111 110 
92 -74 16 -36 
102 -51 116 -127 

99 68 110 106 
-53 10 -65 39 
109 -73 80 87 
113 -4 -99 -40 

-77 122 24 4 
-62 -77 -44 -3 
52 -4 -59 106 
8 2 -112 -25 

-50 20 -10 19 
-123 -43 -102 -16 
-50 -50 -55 -28 
-48 13 -36 -126 


5 81 -124 56 
62 41 3 101 
125 30 -121 89 
-124 -117 106 10 

-5 99 6 18 
94 -6 -105 67 
-110 -72 36 7 
-41 -34 -127 109 

-17 -95 72 -124 
-123 -93 -115 80 
119 31 0 -112 
54 -20 58 1 

94 82 3 -117 
-102 119 85 -32 
125 79 -74 10 
10 -6 65 -40 

-60 -116 119 39 
-57 79 111 110 
92 -74 16 -36 
102 -51 116 -127 

99 68 110 106 
-53 10 -65 39 
109 -73 80 87 
113 -4 -99 -40 

-77 122 24 4 
-62 -77 -44 -3 
52 -4 -59 106 
8 2 -112 -25 

-50 20 -10 19 
-123 -43 -102 -16 
-50 -50 -55 -28 
-48 13 -36 -126 



5 81 -124 56 
62 41 3 101 
125 30 -121 89 
-124 -117 106 10 

-5 99 6 18 
94 -6 -105 67 
-110 -72 36 7 
-41 -34 -127 109 

-17 -95 72 -124 
-123 -93 -115 80 
119 31 0 -112 
54 -20 58 1 

94 82 3 -117 
-102 119 85 -32 
125 79 -74 10 
10 -6 65 -40 

-60 -116 119 39 
-57 79 111 110 
92 -74 16 -36 
102 -51 116 -127 

99 68 110 106 
-53 10 -65 39 
109 -73 80 87 
113 -4 -99 -40 

-77 122 24 4 
-62 -77 -44 -3 
52 -4 -59 106 
8 2 -112 -25 

-50 20 -10 19 
-123 -43 -102 -16 
-50 -50 -55 -28 
-48 13 -36 -126 


5 81 -124 56 
62 41 3 101 
125 30 -121 89 
-124 -117 106 10 

-5 99 6 18 
94 -6 -105 67 
-110 -72 36 7 
-41 -34 -127 109 

-17 -95 72 -124 
-123 -93 -115 80 
119 31 0 -112 
54 -20 58 1 

94 82 3 -117 
-102 119 85 -32 
125 79 -74 10 
10 -6 65 -40 

-60 -116 119 39 
-57 79 111 110 
92 -74 16 -36 
102 -51 116 -127 

99 68 110 106 
-53 10 -65 39 
109 -73 80 87 
113 -4 -99 -40 

-77 122 24 4 
-62 -77 -44 -3 
52 -4 -59 106 
8 2 -112 -25 

-50 20 -10 19 
-123 -43 -102 -16 
-50 -50 -55 -28 
-48 13 -36 -126 


5 81 -124 56 
62 41 3 101 
125 30 -121 89 
-124 -117 106 10 

-5 99 6 18 
94 -6 -105 67 
-110 -72 36 7 
-41 -34 -127 109 

-17 -95 72 -124 
-123 -93 -115 80 
119 31 0 -112 
54 -20 58 1 

94 82 3 -117 
-102 119 85 -32 
125 79 -74 10 
10 -6 65 -40 

-60 -116 119 39 
-57 79 111 110 
92 -74 16 -36 
102 -51 116 -127 

99 68 110 106 
-53 10 -65 39 
109 -73 80 87 
113 -4 -99 -40 

-77 122 24 4 
-62 -77 -44 -3 
52 -4 -59 106 
8 2 -112 -25 

-50 20 -10 19 
-123 -43 -102 -16 
-50 -50 -55 -28 
-48 13 -36 -126 


5 81 -124 56 
62 41 3 101 
125 30 -121 89 
-124 -117 106 10 

-5 99 6 18 
94 -6 -105 67 
-110 -72 36 7 
-41 -34 -127 109 

-17 -95 72 -124 
-123 -93 -115 80 
119 31 0 -112 
54 -20 58 1 

94 82 3 -117 
-102 119 85 -32 
125 79 -74 10 
10 -6 65 -40 

-60 -116 119 39 
-57 79 111 110 
92 -74 16 -36 
102 -51 116 -127 

99 68 110 106 
-53 10 -65 39 
109 -73 80 87 
113 -4 -99 -40 

-77 122 24 4 
-62 -77 -44 -3 
52 -4 -59 106 
8 2 -112 -25 

-50 20 -10 19 
-123 -43 -102 -16 
-50 -50 -55 -28 
-48 13 -36 -126 



5 81 -124 56 
62 41 3 101 
125 30 -121 89 
-124 -117 106 10 

-5 99 6 18 
94 -6 -105 67 
-110 -72 36 7 
-41 -34 -127 109 

-17 -95 72 -124 
-123 -93 -115 80 
119 31 0 -112 
54 -20 58 1 

94 82 3 -117 
-102 119 85 -32 
125 79 -74 10 
10 -6 65 -40 

-60 -116 119 39 
-57 79 111 110 
92 -74 16 -36 
102 -51 116 -127 

99 68 110 106 
-53 10 -65 39 
109 -73 80 87 
113 -4 -99 -40 

-77 122 24 4 
-62 -77 -44 -3 
52 -4 -59 106 
8 2 -112 -25 

-50 20 -10 19 
-123 -43 -102 -16 
-50 -50 -55 -28 
-48 13 -36 -126 


5 81 -124 56 
62 41 3 101 
125 30 -121 89 
-124 -117 106 10 

-5 99 6 18 
94 -6 -105 67 
-110 -72 36 7 
-41 -34 -127 109 

-17 -95 72 -124 
-123 -93 -115 80 
119 31 0 -112 
54 -20 58 1 

94 82 3 -117 
-102 119 85 -32 
125 79 -74 10 
10 -6 65 -40 

-60 -116 119 39 
-57 79 111 110 
92 -74 16 -36 
102 -51 116 -127 

99 68 110 106 
-53 10 -65 39 
109 -73 80 87 
113 -4 -99 -40 

-77 122 24 4 
-62 -77 -44 -3 
52 -4 -59 106 
8 2 -112 -25 

-50 20 -10 19 
-123 -43 -102 -16 
-50 -50 -55 -28 
-48 13 -36 -126 


5 81 -124 56 
62 41 3 101 
125 30 -121 89 
-124 -117 106 10 

-5 99 6 18 
94 -6 -105 67 
-110 -72 36 7 
-41 -34 -127 109 

-17 -95 72 -124 
-123 -93 -115 80 
119 31 0 -112 
54 -20 58 1 

94 82 3 -117 
-102 119 85 -32 
125 79 -74 10 
10 -6 65 -40 

-60 -116 119 39 
-57 79 111 110 
92 -74 16 -36 
102 -51 116 -127 

99 68 110 106 
-53 10 -65 39 
109 -73 80 87 
113 -4 -99 -40 

-77 122 24 4 
-62 -77 -44 -3 
52 -4 -59 106 
8 2 -112 -25 

-50 20 -10 19 
-123 -43 -102 -16 
-50 -50 -55 -28 
-48 13 -36 -126 


5 81 -124 56 
62 41 3 101 
125 30 -121 89 
-124 -117 106 10 

-5 99 6 18 
94 -6 -105 67 
-110 -72 36 7 
-41 -34 -127 109 

-17 -95 72 -124 
-123 -93 -115 80 
119 31 0 -112 
54 -20 58 1 

94 82 3 -117 
-102 119 85 -32 
125 79 -74 10 
10 -6 65 -40 

-60 -116 119 39 
-57 79 111 110 
92 -74 16 -36 
102 -51 116 -127 

99 68 110 106 
-53 10 -65 39 
109 -73 80 87 
113 -4 -99 -40 

-77 122 24 4 
-62 -77 -44 -3 
52 -4 -59 106 
8 2 -112 -25 

-50 20 -10 19 
-123 -43 -102 -16 
-50 -50 -55 -28 
-48 13 -36 -126 



5 81 -124 56 
62 41 3 101 
125 30 -121 89 
-124 -117 106 10 

-5 99 6 18 
94 -6 -105 67 
-110 -72 36 7 
-41 -34 -127 109 

-17 -95 72 -124 
-123 -93 -115 80 
119 31 0 -112 
54 -20 58 1 

94 82 3 -117 
-102 119 85 -32 
125 79 -74 10 
10 -6 65 -40 

-60 -116 119 39 
-57 79 111 110 
92 -74 16 -36 
102 -51 116 -127 

99 68 110 106 
-53 10 -65 39 
109 -73 80 87 
113 -4 -99 -40 

-77 122 24 4 
-62 -77 -44 -3 
52 -4 -59 106 
8 2 -112 -25 

-50 20 -10 19 
-123 -43 -102 -16 
-50 -50 -55 -28 
-48 13 -36 -126 


5 81 -124 56 
62 41 3 101 
125 30 -121 89 
-124 -117 106 10 

-5 99 6 18 
94 -6 -105 67 
-110 -72 36 7 
-41 -34 -127 109 

-17 -95 72 -124 
-123 -93 -115 80 
119 31 0 -112 
54 -20 58 1 

94 82 3 -117 
-102 119 85 -32 
125 79 -74 10 
10 -6 65 -40 

-60 -116 119 39 
-57 79 111 110 
92 -74 16 -36 
102 -51 116 -127 

99 68 110 106 
-53 10 -65 39 
109 -73 80 87 
113 -4 -99 -40 

-77 122 24 4 
-62 -77 -44 -3 
52 -4 -59 106 
8 2 -112 -25 

-50 20 -10 19 
-123 -43 -102 -16 
-50 -50 -55 -28 
-48 13 -36 -126 


5 81 -124 56 
62 41 3 101 
125 30 -121 89 
-124 -117 106 10 

-5 99 6 18 
94 -6 -105 67 
-110 -72 36 7 
-41 -34 -127 109 

-17 -95 72 -124 
-123 -93 -115 80 
119 31 0 -112 
54 -20 58 1 

94 82 3 -117 
-102 119 85 -32 
125 79 -74 10 
10 -6 65 -40 

-60 -116 119 39 
-57 79 111 110 
92 -74 16 -36 
102 -51 116 -127 

99 68 110 106 
-53 10 -65 39 
109 -73 80 87 
113 -4 -99 -40 

-77 122 24 4 
-62 -77 -44 -3 
52 -4 -59 106 
8 2 -112 -25 

-50 20 -10 19 
-123 -43 -102 -16 
-50 -50 -55 -28 
-48 13 -36 -126 


5 81 -124 56 
62 41 3 101 
125 30 -121 89 
-124 -117 106 10 

-5 99 6 18 
94 -6 -105 67 
-110 -72 36 7 
-41 -34 -127 109 

-17 -95 72 -124 
-123 -93 -115 80 
119 31 0 -112 
54 -20 58 1 

94 82 3 -117 
-102 119 85 -32 
125 79 -74 10 
10 -6 65 -40 

-60 -116 119 39 
-57 79 111 110 
92 -74 16 -36 
102 -51 116 -127 

99 68 110 106 
-53 10 -65 39 
109 -73 80 87 
113 -4 -99 -40 

-77 122 24 4 
-62 -77 -44 -3 
52 -4 -59 106 
8 2 -112 -25 

-50 20 -10 19 
-123 -43 -102 -16 
-50 -50 -55 -28 
-48 13 -36 -126 



5 81 -124 56 
62 41 3 101 
125 30 -121 89 
-124 -117 106 10 

-5 99 6 18 
94 -6 -105 67 
-110 -72 36 7 
-41 -34 -127 109 

-17 -95 72 -124 
-123 -93 -115 80 
119 31 0 -112 
54 -20 58 1 

94 82 3 -117 
-102 119 85 -32 
125 79 -74 10 
10 -6 65 -40 

-60 -116 119 39 
-57 79 111 110 
92 -74 16 -36 
102 -51 116 -127 

99 68 110 106 
-53 10 -65 39 
109 -73 80 87 
113 -4 -99 -40 

-77 122 24 4 
-62 -77 -44 -3 
52 -4 -59 106 
8 2 -112 -25 

-50 20 -10 19 
-123 -43 -102 -16 
-50 -50 -55 -28 
-48 13 -36 -126 


5 81 -124 56 
62 41 3 101 
125 30 -121 89 
-124 -117 106 10 

-5 99 6 18 
94 -6 -105 67 
-110 -72 36 7 
-41 -34 -127 109 

-17 -95 72 -124 
-123 -93 -115 80 
119 31 0 -112 
54 -20 58 1 

94 82 3 -117 
-102 119 85 -32 
125 79 -74 10 
10 -6 65 -40 

-60 -116 119 39 
-57 79 111 110 
92 -74 16 -36 
102 -51 116 -127 

99 68 110 106 
-53 10 -65 39 
109 -73 80 87 
113 -4 -99 -40 

-77 122 24 4 
-62 -77 -44 -3 
52 -4 -59 106 
8 2 -112 -25 

-50 20 -10 19 
-123 -43 -102 -16 
-50 -50 -55 -28 
-48 13 -36 -126 


5 81 -124 56 
62 41 3 101 
125 30 -121 89 
-124 -117 106 10 

-5 99 6 18 
94 -6 -105 67 
-110 -72 36 7 
-41 -34 -127 109 

-17 -95 72 -124 
-123 -93 -115 80 
119 31 0 -112 
54 -20 58 1 

94 82 3 -117 
-102 119 85 -32 
125 79 -74 10 
10 -6 65 -40 

-60 -116 119 39 
-57 79 111 110 
92 -74 16 -36 
102 -51 116 -127 

99 68 110 106 
-53 10 -65 39 
109 -73 80 87 
113 -4 -99 -40 

-77 122 24 4 
-62 -77 -44 -3 
52 -4 -59 106 
8 2 -112 -25 

-50 20 -10 19 
-123 -43 -102 -16 
-50 -50 -55 -28 
-48 13 -36 -126 


5 81 -124 56 
62 41 3 101 
125 30 -121 89 
-124 -117 106 10 

-5 99 6 18 
94 -6 -105 67 
-110 -72 36 7 
-41 -34 -127 109 

-17 -95 72 -124 
-123 -93 -115 80 
119 31 0 -112 
54 -20 58 1 

94 82 3 -117 
-102 119 85 -32 
125 79 -74 10 
10 -6 65 -40 

-60 -116 119 39 
-57 79 111 110 
92 -74 16 -36 
102 -51 116 -127 

99 68 110 106 
-53 10 -65 39 
109 -73 80 87 
113 -4 -99 -40 

-77 122 24 4 
-62 -77 -44 -3 
52 -4 -59 106 
8 2 -112 -25 

-50 20 -10 19 
-123 -43 -102 -16 
-50 -50 -55 -28 
-48 13 -36 -126 



5 81 -124 56 
62 41 3 101 
125 30 -121 89 
-124 -117 106 10 

-5 99 6 18 
94 -6 -105 67 
-110 -72 36 7 
-41 -34 -127 109 

-17 -95 72 -124 
-123 -93 -115 80 
119 31 0 -112 
54 -20 58 1 

94 82 3 -117 
-102 119 85 -32 
125 79 -74 10 
10 -6 65 -40 

-60 -116 119 39 
-57 79 111 110 
92 -74 16 -36 
102 -51 116 -127 

99 68 110 106 
-53 10 -65 39 
109 -73 80 87 
113 -4 -99 -40 

-77 122 24 4 
-62 -77 -44 -3 
52 -4 -59 106 
8 2 -112 -25 

-50 20 -10 19 
-123 -43 -102 -16 
-50 -50 -55 -28 
-48 13 -36 -126 


5 81 -124 56 
62 41 3 101 
125 30 -121 89 
-124 -117 106 10 

-5 99 6 18 
94 -6 -105 67 
-110 -72 36 7 
-41 -34 -127 109 

-17 -95 72 -124 
-123 -93 -115 80 
119 31 0 -112 
54 -20 58 1 

94 82 3 -117 
-102 119 85 -32 
125 79 -74 10 
10 -6 65 -40 

-60 -116 119 39 
-57 79 111 110 
92 -74 16 -36 
102 -51 116 -127 

99 68 110 106 
-53 10 -65 39 
109 -73 80 87 
113 -4 -99 -40 

-77 122 24 4 
-62 -77 -44 -3 
52 -4 -59 106 
8 2 -112 -25 

-50 20 -10 19 
-123 -43 -102 -16 
-50 -50 -55 -28 
-48 13 -36 -126 


5 81 -124 56 
62 41 3 101 
125 30 -121 89 
-124 -117 106 10 

-5 99 6 18 
94 -6 -105 67 
-110 -72 36 7 
-41 -34 -127 109 

-17 -95 72 -124 
-123 -93 -115 80 
119 31 0 -112 
54 -20 58 1 

94 82 3 -117 
-102 119 85 -32 
125 79 -74 10 
10 -6 65 -40 

-60 -116 119 39 
-57 79 111 110 
92 -74 16 -36 
102 -51 116 -127 

99 68 110 106 
-53 10 -65 39 
109 -73 80 87 
113 -4 -99 -40 

-77 122 24 4 
-62 -77 -44 -3 
52 -4 -59 106 
8 2 -112 -25 

-50 20 -10 19 
-123 -43 -102 -16 
-50 -50 -55 -28 
-48 13 -36 -126 


5 81 -124 56 
62 41 3 101 
125 30 -121 89 
-124 -117 106 10 

-5 99 6 18 
94 -6 -105 67 
-110 -72 36 7 
-41 -34 -127 109 

-17 -95 72 -124 
-123 -93 -115 80 
119 31 0 -112 
54 -20 58 1 

94 82 3 -117 
-102 119 85 -32 
125 79 -74 10 
10 -6 65 -40 

-60 -116 119 39 
-57 79 111 110 
92 -74 16 -36 
102 -51 116 -127 

99 68 110 106 
-53 10 -65 39 
109 -73 80 87 
113 -4 -99 -40 

-77 122 24 4 
-62 -77 -44 -3 
52 -4 -59 106 
8 2 -112 -25 

-50 20 -10 19 
-123 -43 -102 -16 
-50 -50 -55 -28 
-48 13 -36 -126 



5 81 -124 56 
62 41 3 101 
125 30 -121 89 
-124 -117 106 10 

-5 99 6 18 
94 -6 -105 67 
-110 -72 36 7 
-41 -34 -127 109 

-17 -95 72 -124 
-123 -93 -115 80 
119 31 0 -112 
54 -20 58 1 

94 82 3 -117 
-102 119 85 -32 
125 79 -74 10 
10 -6 65 -40 

-60 -116 119 39 
-57 79 111 110 
92 -74 16 -36 
102 -51 116 -127 

99 68 110 106 
-53 10 -65 39 
109 -73 80 87 
113 -4 -99 -40 

-77 122 24 4 
-62 -77 -44 -3 
52 -4 -59 106 
8 2 -112 -25 

-50 20 -10 19 
-123 -43 -102 -16 
-50 -50 -55 -28 
-48 13 -36 -126 


5 81 -124 56 
62 41 3 101 
125 30 -121 89 
-124 -117 106 10 

-5 99 6 18 
94 -6 -105 67 
-110 -72 36 7 
-41 -34 -127 109 

-17 -95 72 -124 
-123 -93 -115 80 
119 31 0 -112 
54 -20 58 1 

94 82 3 -117 
-102 119 85 -32 
125 79 -74 10 
10 -6 65 -40 

-60 -116 119 39 
-57 79 111 110 
92 -74 16 -36 
102 -51 116 -127 

99 68 110 106 
-53 10 -65 39 
109 -73 80 87 
113 -4 -99 -40 

-77 122 24 4 
-62 -77 -44 -3 
52 -4 -59 106 
8 2 -112 -25 

-50 20 -10 19 
-123 -43 -102 -16 
-50 -50 -55 -28 
-48 13 -36 -126 


5 81 -124 56 
62 41 3 101 
125 30 -121 89 
-124 -117 106 10 

-5 99 6 18 
94 -6 -105 67 
-110 -72 36 7 
-41 -34 -127 109 

-17 -95 72 -124 
-123 -93 -115 80 
119 31 0 -112 
54 -20 58 1 

94 82 3 -117 
-102 119 85 -32 
125 79 -74 10 
10 -6 65 -40 

-60 -116 119 39 
-57 79 111 110 
92 -74 16 -36 
102 -51 116 -127 

99 68 110 106 
-53 10 -65 39 
109 -73 80 87 
113 -4 -99 -40 

-77 122 24 4 
-62 -77 -44 -3 
52 -4 -59 106 
8 2 -112 -25 

-50 20 -10 19 
-123 -43 -102 -16 
-50 -50 -55 -28 
-48 13 -36 -126 


5 81 -124 56 
62 41 3 101 
125 30 -121 89 
-124 -117 106 10 

-5 99 6 18 
94 -6 -105 67 
-110 -72 36 7 
-41 -34 -127 109 

-17 -95 72 -124 
-123 -93 -115 80 
119 31 0 -112 
54 -20 58 1 

94 82 3 -117 
-102 119 85 -32 
125 79 -74 10 
10 -6 65 -40 

-60 -116 119 39 
-57 79 111 110 
92 -74 16 -36 
102 -51 116 -127 

99 68 110 106 
-53 10 -65 39 
109 -73 80 87 
113 -4 -99 -40 

-77 122 24 4 
-62 -77 -44 -3 
52 -4 -59 106 
8 2 -112 -25 

-50 20 -10 19 
-123 -43 -102 -16 
-50 -50 -55 -28 
-48 13 -36 -126 



5 81 -124 56 
62 41 3 101 
125 30 -121 89 
-124 -117 106 10 

-5 99 6 18 
94 -6 -105 67 
-110 -72 36 7 
-41 -34 -127 109 

-17 -95 72 -124 
-123 -93 -115 80 
119 31 0 -112 
54 -20 58 1 

94 82 3 -117 
-102 119 85 -32 
125 79 -74 10 
10 -6 65 -40 

-60 -116 119 39 
-57 79 111 110 
92 -74 16 -36 
102 -51 116 -127 

99 68 110 106 
-53 10 -65 39 
109 -73 80 87 
113 -4 -99 -40 

-77 122 24 4 
-62 -77 -44 -3 
52 -4 -59 106 
8 2 -112 -25 

-50 20 -10 19 
-123 -43 -102 -16 
-50 -50 -55 -28 
-48 13 -36 -126 


5 81 -124 56 
62 41 3 101 
125 30 -121 89 
-124 -117 106 10 

-5 99 6 18 
94 -6 -105 67 
-110 -72 36 7 
-41 -34 -127 109 

-17 -95 72 -124 
-123 -93 -115 80 
119 31 0 -112 
54 -20 58 1 

94 82 3 -117 
-102 119 85 -32 
125 79 -74 10 
10 -6 65 -40 

-60 -116 119 39 
-57 79 111 110 
92 -74 16 -36 
102 -51 116 -127 

99 68 110 106 
-53 10 -65 39 
109 -73 80 87 
113 -4 -99 -40 

-77 122 24 4 
-62 -77 -44 -3 
52 -4 -59 106 
8 2 -112 -25 

-50 20 -10 19 
-123 -43 -102 -16 
-50 -50 -55 -28 
-48 13 -36 -126 


5 81 -124 56 
62 41 3 101 
125 30 -121 89 
-124 -117 106 10 

-5 99 6 18 
94 -6 -105 67 
-110 -72 36 7 
-41 -34 -127 109 

-17 -95 72 -124 
-123 -93 -115 80 
119 31 0 -112 
54 -20 58 1 

94 82 3 -117 
-102 119 85 -32 
125 79 -74 10 
10 -6 65 -40 

-60 -116 119 39 
-57 79 111 110 
92 -74 16 -36 
102 -51 116 -127 

99 68 110 106 
-53 10 -65 39 
109 -73 80 87 
113 -4 -99 -40 

-77 122 24 4 
-62 -77 -44 -3 
52 -4 -59 106 
8 2 -112 -25 

-50 20 -10 19 
-123 -43 -102 -16 
-50 -50 -55 -28 
-48 13 -36 -126 


5 81 -124 56 
62 41 3 101 
125 30 -121 89 
-124 -117 106 10 

-5 99 6 18 
94 -6 -105 67 
-110 -72 36 7 
-41 -34 -127 109 

-17 -95 72 -124 
-123 -93 -115 80 
119 31 0 -112 
54 -20 58 1 

94 82 3 -117 
-102 119 85 -32 
125 79 -74 10 
10 -6 65 -40 

-60 -116 119 39 
-57 79 111 110 
92 -74 16 -36 
102 -51 116 -127 

99 68 110 106 
-53 10 -65 39 
109 -73 80 87 
113 -4 -99 -40 

-77 122 24 4 
-62 -77 -44 -3 
52 -4 -59 106 
8 2 -112 -25 

-50 20 -10 19 
-123 -43 -102 -16 
-50 -50 -55 -28 
-48 13 -36 -126 



5 81 -124 56 
62 41 3 101 
125 30 -121 89 
-124 -117 106 10 

-5 99 6 18 
94 -6 -105 67 
-110 -72 36 7 
-41 -34 -127 109 

-17 -95 72 -124 
-123 -93 -115 80 
119 31 0 -112 
54 -20 58 1 

94 82 3 -117 
-102 119 85 -32 
125 79 -74 10 
10 -6 65 -40 

-60 -116 119 39 
-57 79 111 110 
92 -74 16 -36 
102 -51 116 -127 

99 68 110 106 
-53 10 -65 39 
109 -73 80 87 
113 -4 -99 -40 

-77 122 24 4 
-62 -77 -44 -3 
52 -4 -59 106 
8 2 -112 -25 

-50 20 -10 19 
-123 -43 -102 -16 
-50 -50 -55 -28 
-48 13 -36 -126 


5 81 -124 56 
62 41 3 101 
125 30 -121 89 
-124 -117 106 10 

-5 99 6 18 
94 -6 -105 67 
-110 -72 36 7 
-41 -34 -127 109 

-17 -95 72 -124 
-123 -93 -115 80 
119 31 0 -112 
54 -20 58 1 

94 82 3 -117 
-102 119 85 -32 
125 79 -74 10 
10 -6 65 -40 

-60 -116 119 39 
-57 79 111 110 
92 -74 16 -36 
102 -51 116 -127 

99 68 110 106 
-53 10 -65 39 
109 -73 80 87 
113 -4 -99 -40 

-77 122 24 4 
-62 -77 -44 -3 
52 -4 -59 106 
8 2 -112 -25 

-50 20 -10 19 
-123 -43 -102 -16 
-50 -50 -55 -28 
-48 13 -36 -126 


5 81 -124 56 
62 41 3 101 
125 30 -121 89 
-124 -117 106 10 

-5 99 6 18 
94 -6 -105 67 
-110 -72 36 7 
-41 -34 -127 109 

-17 -95 72 -124 
-123 -93 -115 80 
119 31 0 -112 
54 -20 58 1 

94 82 3 -117 
-102 119 85 -32 
125 79 -74 10 
10 -6 65 -40 

-60 -116 119 39 
-57 79 111 110 
92 -74 16 -36 
102 -51 116 -127 

99 68 110 106 
-53 10 -65 39 
109 -73 80 87 
113 -4 -99 -40 

-77 122 24 4 
-62 -77 -44 -3 
52 -4 -59 106 
8 2 -112 -25 

-50 20 -10 19 
-123 -43 -102 -16 
-50 -50 -55 -28 
-48 13 -36 -126 


5 81 -124 56 
62 41 3 101 
125 30 -121 89 
-124 -117 106 10 

-5 99 6 18 
94 -6 -105 67 
-110 -72 36 7 
-41 -34 -127 109 

-17 -95 72 -124 
-123 -93 -115 80 
119 31 0 -112 
54 -20 58 1 

94 82 3 -117 
-102 119 85 -32 
125 79 -74 10 
10 -6 65 -40 

-60 -116 119 39 
-57 79 111 110 
92 -74 16 -36 
102 -51 116 -127 

99 68 110 106 
-53 10 -65 39 
109 -73 80 87 
113 -4 -99 -40 

-77 122 24 4 
-62 -77 -44 -3 
52 -4 -59 106 
8 2 -112 -25 

-50 20 -10 19 
-123 -43 -102 -16 
-50 -50 -55 -28 
-48 13 -36 -126 




52 25 97 -21 
-14 -21 -6 -50 
-121 -92 58 8 
-69 -6 -95 -70 

106 82 14 58 
86 91 -69 -99 
67 -71 -100 -7 
-2 105 79 102 

15 -64 -109 58 
88 6 -38 23 
-125 71 -46 51 
-109 -22 118 -96 

-69 41 -98 67 
-85 -117 -95 48 
-50 72 -53 -96 
-33 8 -28 -98 

92 29 -59 10 
53 -112 -61 -79 
17 -97 14 -23 
-74 -68 90 -121 

-127 -66 22 -39 
54 92 -17 98 
52 104 39 -77 
-78 -9 -125 -78 

79 57 -12 -46 
-60 81 34 50 
116 -82 -79 -16 
-114 -119 126 -62 

-33 -24 55 107 
-47 33 -116 89 
-23 -55 -6 40 
-32 -4 31 -107 


52 25 97 -21 
-14 -21 -6 -50 
-121 -92 58 8 
-69 -6 -95 -70 

106 82 14 58 
86 91 -69 -99 
67 -71 -100 -7 
-2 105 79 102 

15 -64 -109 58 
88 6 -38 23 
-125 71 -46 51 
-109 -22 118 -96 

-69 41 -98 67 
-85 -117 -95 48 
-50 72 -53 -96 
-33 8 -28 -98 

92 29 -59 10 
53 -112 -61 -79 
17 -97 14 -23 
-74 -68 90 -121 

-127 -66 22 -39 
54 92 -17 98 
52 104 39 -77 
-78 -9 -125 -78 

79 57 -12 -46 
-60 81 34 50 
116 -82 -79 -16 
-114 -119 126 -62 

-33 -24 55 107 
-47 33 -116 89 
-23 -55 -6 40 
-32 -4 31 -107 


52 25 97 -21 
-14 -21 -6 -50 
-121 -92 58 8 
-69 -6 -95 -70 

106 82 14 58 
86 91 -69 -99 
67 -71 -100 -7 
-2 105 79 102 

15 -64 -109 58 
88 6 -38 23 
-125 71 -46 51 
-109 -22 118 -96 

-69 41 -98 67 
-85 -117 -95 48 
-50 72 -53 -96 
-33 8 -28 -98 

92 29 -59 10 
53 -112 -61 -79 
17 -97 14 -23 
-74 -68 90 -121 

-127 -66 22 -39 
54 92 -17 98 
52 104 39 -77 
-78 -9 -125 -78 

79 57 -12 -46 
-60 81 34 50 
116 -82 -79 -16 
-114 -119 126 -62 

-33 -24 55 107 
-47 33 -116 89 
-23 -55 -6 40 
-32 -4 31 -107 


52 25 97 -21 
-14 -21 -6 -50 
-121 -92 58 8 
-69 -6 -95 -70 

106 82 14 58 
86 91 -69 -99 
67 -71 -100 -7 
-2 105 79 102 

15 -64 -109 58 
88 6 -38 23 
-125 71 -46 51 
-109 -22 118 -96 

-69 41 -98 67 
-85 -117 -95 48 
-50 72 -53 -96 
-33 8 -28 -98 

92 29 -59 10 
53 -112 -61 -79 
17 -97 14 -23 
-74 -68 90 -121 

-127 -66 22 -39 
54 92 -17 98 
52 104 39 -77 
-78 -9 -125 -78 

79 57 -12 -46 
-60 81 34 50 
116 -82 -79 -16 
-114 -119 126 -62 

-33 -24 55 107 
-47 33 -116 89 
-23 -55 -6 40 
-32 -4 31 -107 



52 25 97 -21 
-14 -21 -6 -50 
-121 -92 58 8 
-69 -6 -95 -70 

106 82 14 58 
86 91 -69 -99 
67 -71 -100 -7 
-2 105 79 102 

15 -64 -109 58 
88 6 -38 23 
-125 71 -46 51 
-109 -22 118 -96 

-69 41 -98 67 
-85 -117 -95 48 
-50 72 -53 -96 
-33 8 -28 -98 

92 29 -59 10 
53 -112 -61 -79 
17 -97 14 -23 
-74 -68 90 -121 

-127 -66 22 -39 
54 92 -17 98 
52 104 39 -77 
-78 -9 -125 -78 

79 57 -12 -46 
-60 81 34 50 
116 -82 -79 -16 
-114 -119 126 -62 

-33 -24 55 107 
-47 33 -116 89 
-23 -55 -6 40 
-32 -4 31 -107 


52 25 97 -21 
-14 -21 -6 -50 
-121 -92 58 8 
-69 -6 -95 -70 

106 82 14 58 
86 91 -69 -99 
67 -71 -100 -7 
-2 105 79 102 

15 -64 -109 58 
88 6 -38 23 
-125 71 -46 51 
-109 -22 118 -96 

-69 41 -98 67 
-85 -117 -95 48 
-50 72 -53 -96 
-33 8 -28 -98 

92 29 -59 10 
53 -112 -61 -79 
17 -97 14 -23 
-74 -68 90 -121 

-127 -66 22 -39 
54 92 -17 98 
52 104 39 -77 
-78 -9 -125 -78 

79 57 -12 -46 
-60 81 34 50 
116 -82 -79 -16 
-114 -119 126 -62 

-33 -24 55 107 
-47 33 -116 89 
-23 -55 -6 40 
-32 -4 31 -107 


52 25 97 -21 
-14 -21 -6 -50 
-121 -92 58 8 
-69 -6 -95 -70 

106 82 14 58 
86 91 -69 -99 
67 -71 -100 -7 
-2 105 79 102 

15 -64 -109 58 
88 6 -38 23 
-125 71 -46 51 
-109 -22 118 -96 

-69 41 -98 67 
-85 -117 -95 48 
-50 72 -53 -96 
-33 8 -28 -98 

92 29 -59 10 
53 -112 -61 -79 
17 -97 14 -23 
-74 -68 90 -121 

-127 -66 22 -39 
54 92 -17 98 
52 104 39 -77 
-78 -9 -125 -78 

79 57 -12 -46 
-60 81 34 50 
116 -82 -79 -16 
-114 -119 126 -62 

-33 -24 55 107 
-47 33 -116 89 
-23 -55 -6 40 
-32 -4 31 -107 


52 25 97 -21 
-14 -21 -6 -50 
-121 -92 58 8 
-69 -6 -95 -70 

106 82 14 58 
86 91 -69 -99 
67 -71 -100 -7 
-2 105 79 102 

15 -64 -109 58 
88 6 -38 23 
-125 71 -46 51 
-109 -22 118 -96 

-69 41 -98 67 
-85 -117 -95 48 
-50 72 -53 -96 
-33 8 -28 -98 

92 29 -59 10 
53 -112 -61 -79 
17 -97 14 -23 
-74 -68 90 -121 

-127 -66 22 -39 
54 92 -17 98 
52 104 39 -77 
-78 -9 -125 -78 

79 57 -12 -46 
-60 81 34 50 
116 -82 -79 -16 
-114 -119 126 -62 

-33 -24 55 107 
-47 33 -116 89 
-23 -55 -6 40 
-32 -4 31 -107 



52 25 97 -21 
-14 -21 -6 -50 
-121 -92 58 8 
-69 -6 -95 -70 

106 82 14 58 
86 91 -69 -99 
67 -71 -100 -7 
-2 105 79 102 

15 -64 -109 58 
88 6 -38 23 
-125 71 -46 51 
-109 -22 118 -96 

-69 41 -98 67 
-85 -117 -95 48 
-50 72 -53 -96 
-33 8 -28 -98 

92 29 -59 10 
53 -112 -61 -79 
17 -97 14 -23 
-74 -68 90 -121 

-127 -66 22 -39 
54 92 -17 98 
52 104 39 -77 
-78 -9 -125 -78 

79 57 -12 -46 
-60 81 34 50 
116 -82 -79 -16 
-114 -119 126 -62 

-33 -24 55 107 
-47 33 -116 89 
-23 -55 -6 40 
-32 -4 31 -107 


52 25 97 -21 
-14 -21 -6 -50 
-121 -92 58 8 
-69 -6 -95 -70 

106 82 14 58 
86 91 -69 -99 
67 -71 -100 -7 
-2 105 79 102 

15 -64 -109 58 
88 6 -38 23 
-125 71 -46 51 
-109 -22 118 -96 

-69 41 -98 67 
-85 -117 -95 48 
-50 72 -53 -96 
-33 8 -28 -98 

92 29 -59 10 
53 -112 -61 -79 
17 -97 14 -23 
-74 -68 90 -121 

-127 -66 22 -39 
54 92 -17 98 
52 104 39 -77 
-78 -9 -125 -78 

79 57 -12 -46 
-60 81 34 50 
116 -82 -79 -16 
-114 -119 126 -62 

-33 -24 55 107 
-47 33 -116 89 
-23 -55 -6 40 
-32 -4 31 -107 


52 25 97 -21 
-14 -21 -6 -50 
-121 -92 58 8 
-69 -6 -95 -70 

106 82 14 58 
86 91 -69 -99 
67 -71 -100 -7 
-2 105 79 102 

15 -64 -109 58 
88 6 -38 23 
-125 71 -46 51 
-109 -22 118 -96 

-69 41 -98 67 
-85 -117 -95 48 
-50 72 -53 -96 
-33 8 -28 -98 

92 29 -59 10 
53 -112 -61 -79 
17 -97 14 -23 
-74 -68 90 -121 

-127 -66 22 -39 
54 92 -17 98 
52 104 39 -77 
-78 -9 -125 -78 

79 57 -12 -46 
-60 81 34 50 
116 -82 -79 -16 
-114 -119 126 -62 

-33 -24 55 107 
-47 33 -116 89 
-23 -55 -6 40 
-32 -4 31 -107 


52 25 97 -21 
-14 -21 -6 -50 
-121 -92 58 8 
-69 -6 -95 -70 

106 82 14 58 
86 91 -69 -99 
67 -71 -100 -7 
-2 105 79 102 

15 -64 -109 58 
88 6 -38 23 
-125 71 -46 51 
-109 -22 118 -96 

-69 41 -98 67 
-85 -117 -95 48 
-50 72 -53 -96 
-33 8 -28 -98 

92 29 -59 10 
53 -112 -61 -79 
17 -97 14 -23 
-74 -68 90 -121 

-127 -66 22 -39 
54 92 -17 98 
52 104 39 -77 
-78 -9 -125 -78 

79 57 -12 -46 
-60 81 34 50 
116 -82 -79 -16 
-114 -119 126 -62 

-33 -24 55 107 
-47 33 -116 89 
-23 -55 -6 40 
-32 -4 31 -107 



52 25 97 -21 
-14 -21 -6 -50 
-121 -92 58 8 
-69 -6 -95 -70 

106 82 14 58 
86 91 -69 -99 
67 -71 -100 -7 
-2 105 79 102 

15 -64 -109 58 
88 6 -38 23 
-125 71 -46 51 
-109 -22 118 -96 

-69 41 -98 67 
-85 -117 -95 48 
-50 72 -53 -96 
-33 8 -28 -98 

92 29 -59 10 
53 -112 -61 -79 
17 -97 14 -23 
-74 -68 90 -121 

-127 -66 22 -39 
54 92 -17 98 
52 104 39 -77 
-78 -9 -125 -78 

79 57 -12 -46 
-60 81 34 50 
116 -82 -79 -16 
-114 -119 126 -62 

-33 -24 55 107 
-47 33 -116 89 
-23 -55 -6 40 
-32 -4 31 -107 


52 25 97 -21 
-14 -21 -6 -50 
-121 -92 58 8 
-69 -6 -95 -70 

106 82 14 58 
86 91 -69 -99 
67 -71 -100 -7 
-2 105 79 102 

15 -64 -109 58 
88 6 -38 23 
-125 71 -46 51 
-109 -22 118 -96 

-69 41 -98 67 
-85 -117 -95 48 
-50 72 -53 -96 
-33 8 -28 -98 

92 29 -59 10 
53 -112 -61 -79 
17 -97 14 -23 
-74 -68 90 -121 

-127 -66 22 -39 
54 92 -17 98 
52 104 39 -77 
-78 -9 -125 -78 

79 57 -12 -46 
-60 81 34 50 
116 -82 -79 -16 
-114 -119 126 -62 

-33 -24 55 107 
-47 33 -116 89 
-23 -55 -6 40 
-32 -4 31 -107 


52 25 97 -21 
-14 -21 -6 -50 
-121 -92 58 8 
-69 -6 -95 -70 

106 82 14 58 
86 91 -69 -99 
67 -71 -100 -7 
-2 105 79 102 

15 -64 -109 58 
88 6 -38 23 
-125 71 -46 51 
-109 -22 118 -96 

-69 41 -98 67 
-85 -117 -95 48 
-50 72 -53 -96 
-33 8 -28 -98 

92 29 -59 10 
53 -112 -61 -79 
17 -97 14 -23 
-74 -68 90 -121 

-127 -66 22 -39 
54 92 -17 98 
52 104 39 -77 
-78 -9 -125 -78 

79 57 -12 -46 
-60 81 34 50 
116 -82 -79 -16 
-114 -119 126 -62 

-33 -24 55 107 
-47 33 -116 89 
-23 -55 -6 40 
-32 -4 31 -107 


52 25 97 -21 
-14 -21 -6 -50 
-121 -92 58 8 
-69 -6 -95 -70 

106 82 14 58 
86 91 -69 -99 
67 -71 -100 -7 
-2 105 79 102 

15 -64 -109 58 
88 6 -38 23 
-125 71 -46 51 
-109 -22 118 -96 

-69 41 -98 67 
-85 -117 -95 48 
-50 72 -53 -96 
-33 8 -28 -98 

92 29 -59 10 
53 -112 -61 -79 
17 -97 14 -23 
-74 -68 90 -121 

-127 -66 22 -39 
54 92 -17 98 
52 104 39 -77 
-78 -9 -125 -78 

79 57 -12 -46 
-60 81 34 50 
116 -82 -79 -16 
-114 -119 126 -62 

-33 -24 55 107 
-47 33 -116 89 
-23 -55 -6 40 
-32 -4 31 -107 



52 25 97 -21 
-14 -21 -6 -50 
-121 -92 58 8 
-69 -6 -95 -70 

106 82 14 58 
86 91 -69 -99 
67 -71 -100 -7 
-2 105 79 102 

15 -64 -109 58 
88 6 -38 23 
-125 71 -46 51 
-109 -22 118 -96 

-69 41 -98 67 
-85 -117 -95 48 
-50 72 -53 -96 
-33 8 -28 -98 

92 29 -59 10 
53 -112 -61 -79 
17 -97 14 -23 
-74 -68 90 -121 

-127 -66 22 -39 
54 92 -17 98 
52 104 39 -77 
-78 -9 -125 -78 

79 57 -12 -46 
-60 81 34 50 
116 -82 -79 -16 
-114 -119 126 -62 

-33 -24 55 107 
-47 33 -116 89 
-23 -55 -6 40 
-32 -4 31 -107 


52 25 97 -21 
-14 -21 -6 -50 
-121 -92 58 8 
-69 -6 -95 -70 

106 82 14 58 
86 91 -69 -99 
67 -71 -100 -7 
-2 105 79 102 

15 -64 -109 58 
88 6 -38 23 
-125 71 -46 51 
-109 -22 118 -96 

-69 41 -98 67 
-85 -117 -95 48 
-50 72 -53 -96 
-33 8 -28 -98 

92 29 -59 10 
53 -112 -61 -79 
17 -97 14 -23 
-74 -68 90 -121 

-127 -66 22 -39 
54 92 -17 98 
52 104 39 -77 
-78 -9 -125 -78 

79 57 -12 -46 
-60 81 34 50 
116 -82 -79 -16 
-114 -119 126 -62 

-33 -24 55 107 
-47 33 -116 89 
-23 -55 -6 40 
-32 -4 31 -107 


52 25 97 -21 
-14 -21 -6 -50 
-121 -92 58 8 
-69 -6 -95 -70 

106 82 14 58 
86 91 -69 -99 
67 -71 -100 -7 
-2 105 79 102 

15 -64 -109 58 
88 6 -38 23 
-125 71 -46 51 
-109 -22 118 -96 

-69 41 -98 67 
-85 -117 -95 48 
-50 72 -53 -96 
-33 8 -28 -98 

92 29 -59 10 
53 -112 -61 -79 
17 -97 14 -23 
-74 -68 90 -121 

-127 -66 22 -39 
54 92 -17 98 
52 104 39 -77 
-78 -9 -125 -78 

79 57 -12 -46 
-60 81 34 50 
116 -82 -79 -16 
-114 -119 126 -62 

-33 -24 55 107 
-47 33 -116 89 
-23 -55 -6 40 
-32 -4 31 -107 


52 25 97 -21 
-14 -21 -6 -50 
-121 -92 58 8 
-69 -6 -95 -70 

106 82 14 58 
86 91 -69 -99 
67 -71 -100 -7 
-2 105 79 102 

15 -64 -109 58 
88 6 -38 23 
-125 71 -46 51 
-109 -22 118 -96 

-69 41 -98 67 
-85 -117 -95 48 
-50 72 -53 -96 
-33 8 -28 -98 

92 29 -59 10 
53 -112 -61 -79 
17 -97 14 -23 
-74 -68 90 -121 

-127 -66 22 -39 
54 92 -17 98 
52 104 39 -77 
-78 -9 -125 -78 

79 57 -12 -46 
-60 81 34 50 
116 -82 -79 -16 
-114 -119 126 -62 

-33 -24 55 107 
-47 33 -116 89 
-23 -55 -6 40 
-32 -4 31 -107 



52 25 97 -21 
-14 -21 -6 -50 
-121 -92 58 8 
-69 -6 -95 -70 

106 82 14 58 
86 91 -69 -99 
67 -71 -100 -7 
-2 105 79 102 

15 -64 -109 58 
88 6 -38 23 
-125 71 -46 51 
-109 -22 118 -96 

-69 41 -98 67 
-85 -117 -95 48 
-50 72 -53 -96 
-33 8 -28 -98 

92 29 -59 10 
53 -112 -61 -79 
17 -97 14 -23 
-74 -68 90 -121 

-127 -66 22 -39 
54 92 -17 98 
52 104 39 -77 
-78 -9 -125 -78 

79 57 -12 -46 
-60 81 34 50 
116 -82 -79 -16 
-114 -119 126 -62 

-33 -24 55 107 
-47 33 -116 89 
-23 -55 -6 40 
-32 -4 31 -107 


52 25 97 -21 
-14 -21 -6 -50 
-121 -92 58 8 
-69 -6 -95 -70 

106 82 14 58 
86 91 -69 -99 
67 -71 -100 -7 
-2 105 79 102 

15 -64 -109 58 
88 6 -38 23 
-125 71 -46 51 
-109 -22 118 -96 

-69 41 -98 67 
-85 -117 -95 48 
-50 72 -53 -96 
-33 8 -28 -98 

92 29 -59 10 
53 -112 -61 -79 
17 -97 14 -23 
-74 -68 90 -121 

-127 -66 22 -39 
54 92 -17 98 
52 104 39 -77 
-78 -9 -125 -78 

79 57 -12 -46 
-60 81 34 50 
116 -82 -79 -16 
-114 -119 126 -62 

-33 -24 55 107 
-47 33 -116 89 
-23 -55 -6 40 
-32 -4 31 -107 


52 25 97 -21 
-14 -21 -6 -50 
-121 -92 58 8 
-69 -6 -95 -70 

106 82 14 58 
86 91 -69 -99 
67 -71 -100 -7 
-2 105 79 102 

15 -64 -109 58 
88 6 -38 23 
-125 71 -46 51 
-109 -22 118 -96 

-69 41 -98 67 
-85 -117 -95 48 
-50 72 -53 -96 
-33 8 -28 -98 

92 29 -59 10 
53 -112 -61 -79 
17 -97 14 -23 
-74 -68 90 -121 

-127 -66 22 -39 
54 92 -17 98 
52 104 39 -77 
-78 -9 -125 -78 

79 57 -12 -46 
-60 81 34 50 
116 -82 -79 -16 
-114 -119 126 -62 

-33 -24 55 107 
-47 33 -116 89 
-23 -55 -6 40 
-32 -4 31 -107 


52 25 97 -21 
-14 -21 -6 -50 
-121 -92 58 8 
-69 -6 -95 -70 

106 82 14 58 
86 91 -69 -99 
67 -71 -100 -7 
-2 105 79 102 

15 -64 -109 58 
88 6 -38 23 
-125 71 -46 51 
-109 -22 118 -96 

-69 41 -98 67 
-85 -117 -95 48 
-50 72 -53 -96 
-33 8 -28 -98 

92 29 -59 10 
53 -112 -61 -79 
17 -97 14 -23 
-74 -68 90 -121 

-127 -66 22 -39 
54 92 -17 98 
52 104 39 -77 
-78 -9 -125 -78 

79 57 -12 -46 
-60 81 34 50 
116 -82 -79 -16 
-114 -119 126 -62 

-33 -24 55 107 
-47 33 -116 89 
-23 -55 -6 40 
-32 -4 31 -107 



52 25 97 -21 
-14 -21 -6 -50 
-121 -92 58 8 
-69 -6 -95 -70 

106 82 14 58 
86 91 -69 -99 
67 -71 -100 -7 
-2 105 79 102 

15 -64 -109 58 
88 6 -38 23 
-125 71 -46 51 
-109 -22 118 -96 

-69 41 -98 67 
-85 -117 -95 48 
-50 72 -53 -96 
-33 8 -28 -98 

92 29 -59 10 
53 -112 -61 -79 
17 -97 14 -23 
-74 -68 90 -121 

-127 -66 22 -39 
54 92 -17 98 
52 104 39 -77 
-78 -9 -125 -78 

79 57 -12 -46 
-60 81 34 50 
116 -82 -79 -16 
-114 -119 126 -62 

-33 -24 55 107 
-47 33 -116 89 
-23 -55 -6 40 
-32 -4 31 -107 


52 25 97 -21 
-14 -21 -6 -50 
-121 -92 58 8 
-69 -6 -95 -70 

106 82 14 58 
86 91 -69 -99 
67 -71 -100 -7 
-2 105 79 102 

15 -64 -109 58 
88 6 -38 23 
-125 71 -46 51 
-109 -22 118 -96 

-69 41 -98 67 
-85 -117 -95 48 
-50 72 -53 -96 
-33 8 -28 -98 

92 29 -59 10 
53 -112 -61 -79 
17 -97 14 -23 
-74 -68 90 -121 

-127 -66 22 -39 
54 92 -17 98 
52 104 39 -77 
-78 -9 -125 -78 

79 57 -12 -46 
-60 81 34 50 
116 -82 -79 -16 
-114 -119 126 -62 

-33 -24 55 107 
-47 33 -116 89 
-23 -55 -6 40 
-32 -4 31 -107 


52 25 97 -21 
-14 -21 -6 -50 
-121 -92 58 8 
-69 -6 -95 -70 

106 82 14 58 
86 91 -69 -99 
67 -71 -100 -7 
-2 105 79 102 

15 -64 -109 58 
88 6 -38 23 
-125 71 -46 51 
-109 -22 118 -96 

-69 41 -98 67 
-85 -117 -95 48 
-50 72 -53 -96 
-33 8 -28 -98 

92 29 -59 10 
53 -112 -61 -79 
17 -97 14 -23 
-74 -68 90 -121 

-127 -66 22 -39 
54 92 -17 98 
52 104 39 -77 
-78 -9 -125 -78 

79 57 -12 -46 
-60 81 34 50 
116 -82 -79 -16 
-114 -119 126 -62 

-33 -24 55 107 
-47 33 -116 89 
-23 -55 -6 40 
-32 -4 31 -107 


52 25 97 -21 
-14 -21 -6 -50 
-121 -92 58 8 
-69 -6 -95 -70 

106 82 14 58 
86 91 -69 -99 
67 -71 -100 -7 
-2 105 79 102 

15 -64 -109 58 
88 6 -38 23 
-125 71 -46 51 
-109 -22 118 -96 

-69 41 -98 67 
-85 -117 -95 48 
-50 72 -53 -96 
-33 8 -28 -98 

92 29 -59 10 
53 -112 -61 -79 
17 -97 14 -23 
-74 -68 90 -121 

-127 -66 22 -39 
54 92 -17 98 
52 104 39 -77 
-78 -9 -125 -78 

79 57 -12 -46 
-60 81 34 50 
116 -82 -79 -16 
-114 -119 126 -62 

-33 -24 55 107 
-47 33 -116 89 
-23 -55 -6 40 
-32 -4 31 -107 



52 25 97 -21 
-14 -21 -6 -50 
-121 -92 58 8 
-69 -6 -95 -70 

106 82 14 58 
86 91 -69 -99 
67 -71 -100 -7 
-2 105 79 102 

15 -64 -109 58 
88 6 -38 23 
-125 71 -46 51 
-109 -22 118 -96 

-69 41 -98 67 
-85 -117 -95 48 
-50 72 -53 -96 
-33 8 -28 -98 

92 29 -59 10 
53 -112 -61 -79 
17 -97 14 -23 
-74 -68 90 -121 

-127 -66 22 -39 
54 92 -17 98 
52 104 39 -77 
-78 -9 -125 -78 

79 57 -12 -46 
-60 81 34 50 
116 -82 -79 -16 
-114 -119 126 -62 

-33 -24 55 107 
-47 33 -116 89 
-23 -55 -6 40 
-32 -4 31 -107 


52 25 97 -21 
-14 -21 -6 -50 
-121 -92 58 8 
-69 -6 -95 -70 

106 82 14 58 
86 91 -69 -99 
67 -71 -100 -7 
-2 105 79 102 

15 -64 -109 58 
88 6 -38 23 
-125 71 -46 51 
-109 -22 118 -96 

-69 41 -98 67 
-85 -117 -95 48 
-50 72 -53 -96 
-33 8 -28 -98 

92 29 -59 10 
53 -112 -61 -79 
17 -97 14 -23 
-74 -68 90 -121 

-127 -66 22 -39 
54 92 -17 98 
52 104 39 -77 
-78 -9 -125 -78 

79 57 -12 -46 
-60 81 34 50 
116 -82 -79 -16 
-114 -119 126 -62 

-33 -24 55 107 
-47 33 -116 89 
-23 -55 -6 40 
-32 -4 31 -107 


52 25 97 -21 
-14 -21 -6 -50 
-121 -92 58 8 
-69 -6 -95 -70 

106 82 14 58 
86 91 -69 -99 
67 -71 -100 -7 
-2 105 79 102 

15 -64 -109 58 
88 6 -38 23 
-125 71 -46 51 
-109 -22 118 -96 

-69 41 -98 67 
-85 -117 -95 48 
-50 72 -53 -96 
-33 8 -28 -98 

92 29 -59 10 
53 -112 -61 -79 
17 -97 14 -23 
-74 -68 90 -121 

-127 -66 22 -39 
54 92 -17 98 
52 104 39 -77 
-78 -9 -125 -78 

79 57 -12 -46 
-60 81 34 50 
116 -82 -79 -16 
-114 -119 126 -62 

-33 -24 55 107 
-47 33 -116 89 
-23 -55 -6 40 
-32 -4 31 -107 


52 25 97 -21 
-14 -21 -6 -50 
-121 -92 58 8 
-69 -6 -95 -70 

106 82 14 58 
86 91 -69 -99 
67 -71 -100 -7 
-2 105 79 102 

15 -64 -109 58 
88 6 -38 23 
-125 71 -46 51 
-109 -22 118 -96 

-69 41 -98 67 
-85 -117 -95 48 
-50 72 -53 -96 
-33 8 -28 -98 

92 29 -59 10 
53 -112 -61 -79 
17 -97 14 -23 
-74 -68 90 -121 

-127 -66 22 -39 
54 92 -17 98 
52 104 39 -77 
-78 -9 -125 -78 

79 57 -12 -46 
-60 81 34 50 
116 -82 -79 -16 
-114 -119 126 -62 

-33 -24 55 107 
-47 33 -116 89 
-23 -55 -6 40 
-32 -4 31 -107 



52 25 97 -21 
-14 -21 -6 -50 
-121 -92 58 8 
-69 -6 -95 -70 

106 82 14 58 
86 91 -69 -99 
67 -71 -100 -7 
-2 105 79 102 

15 -64 -109 58 
88 6 -38 23 
-125 71 -46 51 
-109 -22 118 -96 

-69 41 -98 67 
-85 -117 -95 48 
-50 72 -53 -96 
-33 8 -28 -98 

92 29 -59 10 
53 -112 -61 -79 
17 -97 14 -23 
-74 -68 90 -121 

-127 -66 22 -39 
54 92 -17 98 
52 104 39 -77 
-78 -9 -125 -78 

79 57 -12 -46 
-60 81 34 50 
116 -82 -79 -16 
-114 -119 126 -62 

-33 -24 55 107 
-47 33 -116 89 
-23 -55 -6 40 
-32 -4 31 -107 


52 25 97 -21 
-14 -21 -6 -50 
-121 -92 58 8 
-69 -6 -95 -70 

106 82 14 58 
86 91 -69 -99 
67 -71 -100 -7 
-2 105 79 102 

15 -64 -109 58 
88 6 -38 23 
-125 71 -46 51 
-109 -22 118 -96 

-69 41 -98 67 
-85 -117 -95 48 
-50 72 -53 -96 
-33 8 -28 -98 

92 29 -59 10 
53 -112 -61 -79 
17 -97 14 -23 
-74 -68 90 -121 

-127 -66 22 -39 
54 92 -17 98 
52 104 39 -77 
-78 -9 -125 -78 

79 57 -12 -46 
-60 81 34 50 
116 -82 -79 -16 
-114 -119 126 -62 

-33 -24 55 107 
-47 33 -116 89 
-23 -55 -6 40 
-32 -4 31 -107 


52 25 97 -21 
-14 -21 -6 -50 
-121 -92 58 8 
-69 -6 -95 -70 

106 82 14 58 
86 91 -69 -99 
67 -71 -100 -7 
-2 105 79 102 

15 -64 -109 58 
88 6 -38 23 
-125 71 -46 51 
-109 -22 118 -96 

-69 41 -98 67 
-85 -117 -95 48 
-50 72 -53 -96 
-33 8 -28 -98 

92 29 -59 10 
53 -112 -61 -79 
17 -97 14 -23 
-74 -68 90 -121 

-127 -66 22 -39 
54 92 -17 98 
52 104 39 -77 
-78 -9 -125 -78 

79 57 -12 -46 
-60 81 34 50 
116 -82 -79 -16 
-114 -119 126 -62 

-33 -24 55 107 
-47 33 -116 89 
-23 -55 -6 40 
-32 -4 31 -107 


52 25 97 -21 
-14 -21 -6 -50 
-121 -92 58 8 
-69 -6 -95 -70 

106 82 14 58 
86 91 -69 -99 
67 -71 -100 -7 
-2 105 79 102 

15 -64 -109 58 
88 6 -38 23 
-125 71 -46 51 
-109 -22 118 -96 

-69 41 -98 67 
-85 -117 -95 48 
-50 72 -53 -96 
-33 8 -28 -98 

92 29 -59 10 
53 -112 -61 -79 
17 -97 14 -23 
-74 -68 90 -121 

-127 -66 22 -39 
54 92 -17 98 
52 104 39 -77 
-78 -9 -125 -78 

79 57 -12 -46 
-60 81 34 50 
116 -82 -79 -16 
-114 -119 126 -62 

-33 -24 55 107 
-47 33 -116 89 
-23 -55 -6 40 
-32 -4 31 -107 



52 25 97 -21 
-14 -21 -6 -50 
-121 -92 58 8 
-69 -6 -95 -70 

106 82 14 58 
86 91 -69 -99 
67 -71 -100 -7 
-2 105 79 102 

15 -64 -109 58 
88 6 -38 23 
-125 71 -46 51 
-109 -22 118 -96 

-69 41 -98 67 
-85 -117 -95 48 
-50 72 -53 -96 
-33 8 -28 -98 

92 29 -59 10 
53 -112 -61 -79 
17 -97 14 -23 
-74 -68 90 -121 

-127 -66 22 -39 
54 92 -17 98 
52 104 39 -77 
-78 -9 -125 -78 

79 57 -12 -46 
-60 81 34 50 
116 -82 -79 -16 
-114 -119 126 -62 

-33 -24 55 107 
-47 33 -116 89 
-23 -55 -6 40 
-32 -4 31 -107 


52 25 97 -21 
-14 -21 -6 -50 
-121 -92 58 8 
-69 -6 -95 -70 

106 82 14 58 
86 91 -69 -99 
67 -71 -100 -7 
-2 105 79 102 

15 -64 -109 58 
88 6 -38 23 
-125 71 -46 51 
-109 -22 118 -96 

-69 41 -98 67 
-85 -117 -95 48 
-50 72 -53 -96 
-33 8 -28 -98 

92 29 -59 10 
53 -112 -61 -79 
17 -97 14 -23 
-74 -68 90 -121 

-127 -66 22 -39 
54 92 -17 98 
52 104 39 -77 
-78 -9 -125 -78 

79 57 -12 -46 
-60 81 34 50 
116 -82 -79 -16 
-114 -119 126 -62 

-33 -24 55 107 
-47 33 -116 89 
-23 -55 -6 40 
-32 -4 31 -107 


52 25 97 -21 
-14 -21 -6 -50 
-121 -92 58 8 
-69 -6 -95 -70 

106 82 14 58 
86 91 -69 -99 
67 -71 -100 -7 
-2 105 79 102 

15 -64 -109 58 
88 6 -38 23 
-125 71 -46 51 
-109 -22 118 -96 

-69 41 -98 67 
-85 -117 -95 48 
-50 72 -53 -96 
-33 8 -28 -98 

92 29 -59 10 
53 -112 -61 -79 
17 -97 14 -23 
-74 -68 90 -121 

-127 -66 22 -39 
54 92 -17 98 
52 104 39 -77 
-78 -9 -125 -78 

79 57 -12 -46 
-60 81 34 50 
116 -82 -79 -16 
-114 -119 126 -62 

-33 -24 55 107 
-47 33 -116 89 
-23 -55 -6 40 
-32 -4 31 -107 


52 25 97 -21 
-14 -21 -6 -50 
-121 -92 58 8 
-69 -6 -95 -70 

106 82 14 58 
86 91 -69 -99 
67 -71 -100 -7 
-2 105 79 102 

15 -64 -109 58 
88 6 -38 23 
-125 71 -46 51 
-109 -22 118 -96 

-69 41 -98 67 
-85 -117 -95 48 
-50 72 -53 -96 
-33 8 -28 -98 

92 29 -59 10 
53 -112 -61 -79 
17 -97 14 -23 
-74 -68 90 -121 

-127 -66 22 -39 
54 92 -17 98 
52 104 39 -77 
-78 -9 -125 -78 

79 57 -12 -46 
-60 81 34 50 
116 -82 -79 -16 
-114 -119 126 -62 

-33 -24 55 107 
-47 33 -116 89 
-23 -55 -6 40 
-32 -4 31 -107 



52 25 97 -21 
-14 -21 -6 -50 
-121 -92 58 8 
-69 -6 -95 -70 

106 82 14 58 
86 91 -69 -99 
67 -71 -100 -7 
-2 105 79 102 

15 -64 -109 58 
88 6 -38 23 
-125 71 -46 51 
-109 -22 118 -96 

-69 41 -98 67 
-85 -117 -95 48 
-50 72 -53 -96 
-33 8 -28 -98 

92 29 -59 10 
53 -112 -61 -79 
17 -97 14 -23 
-74 -68 90 -121 

-127 -66 22 -39 
54 92 -17 98 
52 104 39 -77 
-78 -9 -125 -78 

79 57 -12 -46 
-60 81 34 50 
116 -82 -79 -16 
-114 -119 126 -62 

-33 -24 55 107 
-47 33 -116 89 
-23 -55 -6 40 
-32 -4 31 -107 


52 25 97 -21 
-14 -21 -6 -50 
-121 -92 58 8 
-69 -6 -95 -70 

106 82 14 58 
86 91 -69 -99 
67 -71 -100 -7 
-2 105 79 102 

15 -64 -109 58 
88 6 -38 23 
-125 71 -46 51 
-109 -22 118 -96 

-69 41 -98 67 
-85 -117 -95 48 
-50 72 -53 -96 
-33 8 -28 -98 

92 29 -59 10 
53 -112 -61 -79 
17 -97 14 -23 
-74 -68 90 -121 

-127 -66 22 -39 
54 92 -17 98 
52 104 39 -77 
-78 -9 -125 -78 

79 57 -12 -46 
-60 81 34 50 
116 -82 -79 -16 
-114 -119 126 -62 

-33 -24 55 107 
-47 33 -116 89 
-23 -55 -6 40 
-32 -4 31 -107 


52 25 97 -21 
-14 -21 -6 -50 
-121 -92 58 8 
-69 -6 -95 -70 

106 82 14 58 
86 91 -69 -99 
67 -71 -100 -7 
-2 105 79 102 

15 -64 -109 58 
88 6 -38 23 
-125 71 -46 51 
-109 -22 118 -96 

-69 41 -98 67 
-85 -117 -95 48 
-50 72 -53 -96 
-33 8 -28 -98 

92 29 -59 10 
53 -112 -61 -79 
17 -97 14 -23 
-74 -68 90 -121 

-127 -66 22 -39 
54 92 -17 98 
52 104 39 -77 
-78 -9 -125 -78 

79 57 -12 -46 
-60 81 34 50 
116 -82 -79 -16 
-114 -119 126 -62 

-33 -24 55 107 
-47 33 -116 89 
-23 -55 -6 40 
-32 -4 31 -107 


52 25 97 -21 
-14 -21 -6 -50 
-121 -92 58 8 
-69 -6 -95 -70 

106 82 14 58 
86 91 -69 -99 
67 -71 -100 -7 
-2 105 79 102 

15 -64 -109 58 
88 6 -38 23 
-125 71 -46 51 
-109 -22 118 -96 

-69 41 -98 67 
-85 -117 -95 48 
-50 72 -53 -96 
-33 8 -28 -98 

92 29 -59 10 
53 -112 -61 -79 
17 -97 14 -23 
-74 -68 90 -121 

-127 -66 22 -39 
54 92 -17 98 
52 104 39 -77 
-78 -9 -125 -78 

79 57 -12 -46 
-60 81 34 50 
116 -82 -79 -16 
-114 -119 126 -62 

-33 -24 55 107 
-47 33 -116 89 
-23 -55 -6 40 
-32 -4 31 -107 



52 25 97 -21 
-14 -21 -6 -50 
-121 -92 58 8 
-69 -6 -95 -70 

106 82 14 58 
86 91 -69 -99 
67 -71 -100 -7 
-2 105 79 102 

15 -64 -109 58 
88 6 -38 23 
-125 71 -46 51 
-109 -22 118 -96 

-69 41 -98 67 
-85 -117 -95 48 
-50 72 -53 -96 
-33 8 -28 -98 

92 29 -59 10 
53 -112 -61 -79 
17 -97 14 -23 
-74 -68 90 -121 

-127 -66 22 -39 
54 92 -17 98 
52 104 39 -77 
-78 -9 -125 -78 

79 57 -12 -46 
-60 81 34 50 
116 -82 -79 -16 
-114 -119 126 -62 

-33 -24 55 107 
-47 33 -116 89 
-23 -55 -6 40 
-32 -4 31 -107 


52 25 97 -21 
-14 -21 -6 -50 
-121 -92 58 8 
-69 -6 -95 -70 

106 82 14 58 
86 91 -69 -99 
67 -71 -100 -7 
-2 105 79 102 

15 -64 -109 58 
88 6 -38 23 
-125 71 -46 51 
-109 -22 118 -96 

-69 41 -98 67 
-85 -117 -95 48 
-50 72 -53 -96 
-33 8 -28 -98 

92 29 -59 10 
53 -112 -61 -79 
17 -97 14 -23 
-74 -68 90 -121 

-127 -66 22 -39 
54 92 -17 98 
52 104 39 -77 
-78 -9 -125 -78 

79 57 -12 -46 
-60 81 34 50 
116 -82 -79 -16 
-114 -119 126 -62 

-33 -24 55 107 
-47 33 -116 89 
-23 -55 -6 40 
-32 -4 31 -107 


52 25 97 -21 
-14 -21 -6 -50 
-121 -92 58 8 
-69 -6 -95 -70 

106 82 14 58 
86 91 -69 -99 
67 -71 -100 -7 
-2 105 79 102 

15 -64 -109 58 
88 6 -38 23 
-125 71 -46 51 
-109 -22 118 -96 

-69 41 -98 67 
-85 -117 -95 48 
-50 72 -53 -96 
-33 8 -28 -98 

92 29 -59 10 
53 -112 -61 -79 
17 -97 14 -23 
-74 -68 90 -121 

-127 -66 22 -39 
54 92 -17 98 
52 104 39 -77 
-78 -9 -125 -78 

79 57 -12 -46 
-60 81 34 50 
116 -82 -79 -16 
-114 -119 126 -62 

-33 -24 55 107 
-47 33 -116 89 
-23 -55 -6 40 
-32 -4 31 -107 


52 25 97 -21 
-14 -21 -6 -50 
-121 -92 58 8 
-69 -6 -95 -70 

106 82 14 58 
86 91 -69 -99 
67 -71 -100 -7 
-2 105 79 102 

15 -64 -109 58 
88 6 -38 23 
-125 71 -46 51 
-109 -22 118 -96 

-69 41 -98 67 
-85 -117 -95 48 
-50 72 -53 -96 
-33 8 -28 -98 

92 29 -59 10 
53 -112 -61 -79 
17 -97 14 -23 
-74 -68 90 -121 

-127 -66 22 -39 
54 92 -17 98 
52 104 39 -77 
-78 -9 -125 -78 

79 57 -12 -46 
-60 81 34 50 
116 -82 -79 -16 
-114 -119 126 -62 

-33 -24 55 107 
-47 33 -116 89 
-23 -55 -6 40 
-32 -4 31 -107 



52 25 97 -21 
-14 -21 -6 -50 
-121 -92 58 8 
-69 -6 -95 -70 

106 82 14 58 
86 91 -69 -99 
67 -71 -100 -7 
-2 105 79 102 

15 -64 -109 58 
88 6 -38 23 
-125 71 -46 51 
-109 -22 118 -96 

-69 41 -98 67 
-85 -117 -95 48 
-50 72 -53 -96 
-33 8 -28 -98 

92 29 -59 10 
53 -112 -61 -79 
17 -97 14 -23 
-74 -68 90 -121 

-127 -66 22 -39 
54 92 -17 98 
52 104 39 -77 
-78 -9 -125 -78 

79 57 -12 -46 
-60 81 34 50 
116 -82 -79 -16 
-114 -119 126 -62 

-33 -24 55 107 
-47 33 -116 89 
-23 -55 -6 40 
-32 -4 31 -107 


52 25 97 -21 
-14 -21 -6 -50 
-121 -92 58 8 
-69 -6 -95 -70 

106 82 14 58 
86 91 -69 -99 
67 -71 -100 -7 
-2 105 79 102 

15 -64 -109 58 
88 6 -38 23 
-125 71 -46 51 
-109 -22 118 -96 

-69 41 -98 67 
-85 -117 -95 48 
-50 72 -53 -96 
-33 8 -28 -98 

92 29 -59 10 
53 -112 -61 -79 
17 -97 14 -23 
-74 -68 90 -121 

-127 -66 22 -39 
54 92 -17 98 
52 104 39 -77 
-78 -9 -125 -78 

79 57 -12 -46 
-60 81 34 50 
116 -82 -79 -16 
-114 -119 126 -62 

-33 -24 55 107 
-47 33 -116 89 
-23 -55 -6 40 
-32 -4 31 -107 


52 25 97 -21 
-14 -21 -6 -50 
-121 -92 58 8 
-69 -6 -95 -70 

106 82 14 58 
86 91 -69 -99 
67 -71 -100 -7 
-2 105 79 102 

15 -64 -109 58 
88 6 -38 23 
-125 71 -46 51 
-109 -22 118 -96 

-69 41 -98 67 
-85 -117 -95 48 
-50 72 -53 -96 
-33 8 -28 -98 

92 29 -59 10 
53 -112 -61 -79 
17 -97 14 -23 
-74 -68 90 -121 

-127 -66 22 -39 
54 92 -17 98 
52 104 39 -77 
-78 -9 -125 -78 

79 57 -12 -46 
-60 81 34 50 
116 -82 -79 -16 
-114 -119 126 -62 

-33 -24 55 107 
-47 33 -116 89 
-23 -55 -6 40 
-32 -4 31 -107 


52 25 97 -21 
-14 -21 -6 -50 
-121 -92 58 8 
-69 -6 -95 -70 

106 82 14 58 
86 91 -69 -99 
67 -71 -100 -7 
-2 105 79 102 

15 -64 -109 58 
88 6 -38 23 
-125 71 -46 51 
-109 -22 118 -96 

-69 41 -98 67 
-85 -117 -95 48 
-50 72 -53 -96 
-33 8 -28 -98 

92 29 -59 10 
53 -112 -61 -79 
17 -97 14 -23 
-74 -68 90 -121 

-127 -66 22 -39 
54 92 -17 98 
52 104 39 -77 
-78 -9 -125 -78 

79 57 -12 -46 
-60 81 34 50 
116 -82 -79 -16 
-114 -119 126 -62 

-33 -24 55 107 
-47 33 -116 89 
-23 -55 -6 40 
-32 -4 31 -107 




31 71 102 -14 
-55 -12 71 112 
28 -37 125 83 
-73 56 91 54 

32 -12 -58 4 
110 -74 20 28 
79 25 -19 -34 
-94 -119 -118 -56 

116 -17 -97 -53 
27 -24 100 -16 
50 -79 -12 -99 
118 59 66 -23 

58 -77 -36 88 
-17 11 -54 -71 
-9 113 79 41 
78 4 63 5 

-46 4 46 23 
-62 -8 -75 8 
-86 -41 -29 28 
12 55 46 -9 

-81 -107 -123 104 
-13 -115 -116 76 
6 -80 117 -39 
-102 -47 15 -113 

-125 11 114 64 
62 39 104 -43 
-23 -10 88 -76 
96 -23 -45 71 

-117 65 -57 123 
121 6 42 94 
83 107 -57 81 
-97 -76 -41 87 


31 71 102 -14 
-55 -12 71 112 
28 -37 125 83 
-73 56 91 54 

32 -12 -58 4 
110 -74 20 28 
79 25 -19 -34 
-94 -119 -118 -56 

116 -17 -97 -53 
27 -24 100 -16 
50 -79 -12 -99 
118 59 66 -23 

58 -77 -36 88 
-17 11 -54 -71 
-9 113 79 41 
78 4 63 5 

-46 4 46 23 
-62 -8 -75 8 
-86 -41 -29 28 
12 55 46 -9 

-81 -107 -123 104 
-13 -115 -116 76 
6 -80 117 -39 
-102 -47 15 -113 

-125 11 114 64 
62 39 104 -43 
-23 -10 88 -76 
96 -23 -45 71 

-117 65 -57 123 
121 6 42 94 
83 107 -57 81 
-97 -76 -41 87 


31 71 102 -14 
-55 -12 71 112 
28 -37 125 83 
-73 56 91 54 

32 -12 -58 4 
110 -74 20 28 
79 25 -19 -34 
-94 -119 -118 -56 

116 -17 -97 -53 
27 -24 100 -16 
50 -79 -12 -99 
118 59 66 -23 

58 -77 -36 88 
-17 11 -54 -71 
-9 113 79 41 
78 4 63 5 

-46 4 46 23 
-62 -8 -75 8 
-86 -41 -29 28 
12 55 46 -9 

-81 -107 -123 104 
-13 -115 -116 76 
6 -80 117 -39 
-102 -47 15 -113 

-125 11 114 64 
62 39 104 -43 
-23 -10 88 -76 
96 -23 -45 71 

-117 65 -57 123 
121 6 42 94 
83 107 -57 81 
-97 -76 -41 87 


31 71 102 -14 
-55 -12 71 112 
28 -37 125 83 
-73 56 91 54 

32 -12 -58 4 
110 -74 20 28 
79 25 -19 -34 
-94 -119 -118 -56 

116 -17 -97 -53 
27 -24 100 -16 
50 -79 -12 -99 
118 59 66 -23 

58 -77 -36 88 
-17 11 -54 -71 
-9 113 79 41 
78 4 63 5 

-46 4 46 23 
-62 -8 -75 8 
-86 -41 -29 28 
12 55 46 -9 

-81 -107 -123 104 
-13 -115 -116 76 
6 -80 117 -39 
-102 -47 15 -113 

-125 11 114 64 
62 39 104 -43 
-23 -10 88 -76 
96 -23 -45 71 

-117 65 -57 123 
121 6 42 94 
83 107 -57 81 
-97 -76 -41 87 



31 71 102 -14 
-55 -12 71 112 
28 -37 125 83 
-73 56 91 54 

32 -12 -58 4 
110 -74 20 28 
79 25 -19 -34 
-94 -119 -118 -56 

116 -17 -97 -53 
27 -24 100 -16 
50 -79 -12 -99 
118 59 66 -23 

58 -77 -36 88 
-17 11 -54 -71 
-9 113 79 41 
78 4 63 5 

-46 4 46 23 
-62 -8 -75 8 
-86 -41 -29 28 
12 55 46 -9 

-81 -107 -123 104 
-13 -115 -116 76 
6 -80 117 -39 
-102 -47 15 -113 

-125 11 114 64 
62 39 104 -43 
-23 -10 88 -76 
96 -23 -45 71 

-117 65 -57 123 
121 6 42 94 
83 107 -57 81 
-97 -76 -41 87 


31 71 102 -14 
-55 -12 71 112 
28 -37 125 83 
-73 56 91 54 

32 -12 -58 4 
110 -74 20 28 
79 25 -19 -34 
-94 -119 -118 -56 

116 -17 -97 -53 
27 -24 100 -16 
50 -79 -12 -99 
118 59 66 -23 

58 -77 -36 88 
-17 11 -54 -71 
-9 113 79 41 
78 4 63 5 

-46 4 46 23 
-62 -8 -75 8 
-86 -41 -29 28 
12 55 46 -9 

-81 -107 -123 104 
-13 -115 -116 76 
6 -80 117 -39 
-102 -47 15 -113 

-125 11 114 64 
62 39 104 -43 
-23 -10 88 -76 
96 -23 -45 71 

-117 65 -57 123 
121 6 42 94 
83 107 -57 81 
-97 -76 -41 87 


31 71 102 -14 
-55 -12 71 112 
28 -37 125 83 
-73 56 91 54 

32 -12 -58 4 
110 -74 20 28 
79 25 -19 -34 
-94 -119 -118 -56 

116 -17 -97 -53 
27 -24 100 -16 
50 -79 -12 -99 
118 59 66 -23 

58 -77 -36 88 
-17 11 -54 -71 
-9 113 79 41 
78 4 63 5 

-46 4 46 23 
-62 -8 -75 8 
-86 -41 -29 28 
12 55 46 -9 

-81 -107 -123 104 
-13 -115 -116 76 
6 -80 117 -39 
-102 -47 15 -113 

-125 11 114 64 
62 39 104 -43 
-23 -10 88 -76 
96 -23 -45 71 

-117 65 -57 123 
121 6 42 94 
83 107 -57 81 
-97 -76 -41 87 


31 71 102 -14 
-55 -12 71 112 
28 -37 125 83 
-73 56 91 54 

32 -12 -58 4 
110 -74 20 28 
79 25 -19 -34 
-94 -119 -118 -56 

116 -17 -97 -53 
27 -24 100 -16 
50 -79 -12 -99 
118 59 66 -23 

58 -77 -36 88 
-17 11 -54 -71 
-9 113 79 41 
78 4 63 5 

-46 4 46 23 
-62 -8 -75 8 
-86 -41 -29 28 
12 55 46 -9 

-81 -107 -123 104 
-13 -115 -116 76 
6 -80 117 -39 
-102 -47 15 -113 

-125 11 114 64 
62 39 104 -43 
-23 -10 88 -76 
96 -23 -45 71 

-117 65 -57 123 
121 6 42 94 
83 107 -57 81 
-97 -76 -41 87 



31 71 102 -14 
-55 -12 71 112 
28 -37 125 83 
-73 56 91 54 

32 -12 -58 4 
110 -74 20 28 
79 25 -19 -34 
-94 -119 -118 -56 

116 -17 -97 -53 
27 -24 100 -16 
50 -79 -12 -99 
118 59 66 -23 

58 -77 -36 88 
-17 11 -54 -71 
-9 113 79 41 
78 4 63 5 

-46 4 46 23 
-62 -8 -75 8 
-86 -41 -29 28 
12 55 46 -9 

-81 -107 -123 104 
-13 -115 -116 76 
6 -80 117 -39 
-102 -47 15 -113 

-125 11 114 64 
62 39 104 -43 
-23 -10 88 -76 
96 -23 -45 71 

-117 65 -57 123 
121 6 42 94 
83 107 -57 81 
-97 -76 -41 87 


31 71 102 -14 
-55 -12 71 112 
28 -37 125 83 
-73 56 91 54 

32 -12 -58 4 
110 -74 20 28 
79 25 -19 -34 
-94 -119 -118 -56 

116 -17 -97 -53 
27 -24 100 -16 
50 -79 -12 -99 
118 59 66 -23 

58 -77 -36 88 
-17 11 -54 -71 
-9 113 79 41 
78 4 63 5 

-46 4 46 23 
-62 -8 -75 8 
-86 -41 -29 28 
12 55 46 -9 

-81 -107 -123 104 
-13 -115 -116 76 
6 -80 117 -39 
-102 -47 15 -113 

-125 11 114 64 
62 39 104 -43 
-23 -10 88 -76 
96 -23 -45 71 

-117 65 -57 123 
121 6 42 94 
83 107 -57 81 
-97 -76 -41 87 


31 71 102 -14 
-55 -12 71 112 
28 -37 125 83 
-73 56 91 54 

32 -12 -58 4 
110 -74 20 28 
79 25 -19 -34 
-94 -119 -118 -56 

116 -17 -97 -53 
27 -24 100 -16 
50 -79 -12 -99 
118 59 66 -23 

58 -77 -36 88 
-17 11 -54 -71 
-9 113 79 41 
78 4 63 5 

-46 4 46 23 
-62 -8 -75 8 
-86 -41 -29 28 
12 55 46 -9 

-81 -107 -123 104 
-13 -115 -116 76 
6 -80 117 -39 
-102 -47 15 -113 

-125 11 114 64 
62 39 104 -43 
-23 -10 88 -76 
96 -23 -45 71 

-117 65 -57 123 
121 6 42 94 
83 107 -57 81 
-97 -76 -41 87 


31 71 102 -14 
-55 -12 71 112 
28 -37 125 83 
-73 56 91 54 

32 -12 -58 4 
110 -74 20 28 
79 25 -19 -34 
-94 -119 -118 -56 

116 -17 -97 -53 
27 -24 100 -16 
50 -79 -12 -99 
118 59 66 -23 

58 -77 -36 88 
-17 11 -54 -71 
-9 113 79 41 
78 4 63 5 

-46 4 46 23 
-62 -8 -75 8 
-86 -41 -29 28 
12 55 46 -9 

-81 -107 -123 104 
-13 -115 -116 76 
6 -80 117 -39 
-102 -47 15 -113 

-125 11 114 64 
62 39 104 -43 
-23 -10 88 -76 
96 -23 -45 71 

-117 65 -57 123 
121 6 42 94 
83 107 -57 81 
-97 -76 -41 87 



31 71 102 -14 
-55 -12 71 112 
28 -37 125 83 
-73 56 91 54 

32 -12 -58 4 
110 -74 20 28 
79 25 -19 -34 
-94 -119 -118 -56 

116 -17 -97 -53 
27 -24 100 -16 
50 -79 -12 -99 
118 59 66 -23 

58 -77 -36 88 
-17 11 -54 -71 
-9 113 79 41 
78 4 63 5 

-46 4 46 23 
-62 -8 -75 8 
-86 -41 -29 28 
12 55 46 -9 

-81 -107 -123 104 
-13 -115 -116 76 
6 -80 117 -39 
-102 -47 15 -113 

-125 11 114 64 
62 39 104 -43 
-23 -10 88 -76 
96 -23 -45 71 

-117 65 -57 123 
121 6 42 94 
83 107 -57 81 
-97 -76 -41 87 


31 71 102 -14 
-55 -12 71 112 
28 -37 125 83 
-73 56 91 54 

32 -12 -58 4 
110 -74 20 28 
79 25 -19 -34 
-94 -119 -118 -56 

116 -17 -97 -53 
27 -24 100 -16 
50 -79 -12 -99 
118 59 66 -23 

58 -77 -36 88 
-17 11 -54 -71 
-9 113 79 41 
78 4 63 5 

-46 4 46 23 
-62 -8 -75 8 
-86 -41 -29 28 
12 55 46 -9 

-81 -107 -123 104 
-13 -115 -116 76 
6 -80 117 -39 
-102 -47 15 -113 

-125 11 114 64 
62 39 104 -43 
-23 -10 88 -76 
96 -23 -45 71 

-117 65 -57 123 
121 6 42 94 
83 107 -57 81 
-97 -76 -41 87 


31 71 102 -14 
-55 -12 71 112 
28 -37 125 83 
-73 56 91 54 

32 -12 -58 4 
110 -74 20 28 
79 25 -19 -34 
-94 -119 -118 -56 

116 -17 -97 -53 
27 -24 100 -16 
50 -79 -12 -99 
118 59 66 -23 

58 -77 -36 88 
-17 11 -54 -71 
-9 113 79 41 
78 4 63 5 

-46 4 46 23 
-62 -8 -75 8 
-86 -41 -29 28 
12 55 46 -9 

-81 -107 -123 104 
-13 -115 -116 76 
6 -80 117 -39 
-102 -47 15 -113 

-125 11 114 64 
62 39 104 -43 
-23 -10 88 -76 
96 -23 -45 71 

-117 65 -57 123 
121 6 42 94 
83 107 -57 81 
-97 -76 -41 87 


31 71 102 -14 
-55 -12 71 112 
28 -37 125 83 
-73 56 91 54 

32 -12 -58 4 
110 -74 20 28 
79 25 -19 -34 
-94 -119 -118 -56 

116 -17 -97 -53 
27 -24 100 -16 
50 -79 -12 -99 
118 59 66 -23 

58 -77 -36 88 
-17 11 -54 -71 
-9 113 79 41 
78 4 63 5 

-46 4 46 23 
-62 -8 -75 8 
-86 -41 -29 28 
12 55 46 -9 

-81 -107 -123 104 
-13 -115 -116 76 
6 -80 117 -39 
-102 -47 15 -113 

-125 11 114 64 
62 39 104 -43 
-23 -10 88 -76 
96 -23 -45 71 

-117 65 -57 123 
121 6 42 94 
83 107 -57 81 
-97 -76 -41 87 



31 71 102 -14 
-55 -12 71 112 
28 -37 125 83 
-73 56 91 54 

32 -12 -58 4 
110 -74 20 28 
79 25 -19 -34 
-94 -119 -118 -56 

116 -17 -97 -53 
27 -24 100 -16 
50 -79 -12 -99 
118 59 66 -23 

58 -77 -36 88 
-17 11 -54 -71 
-9 113 79 41 
78 4 63 5 

-46 4 46 23 
-62 -8 -75 8 
-86 -41 -29 28 
12 55 46 -9 

-81 -107 -123 104 
-13 -115 -116 76 
6 -80 117 -39 
-102 -47 15 -113 

-125 11 114 64 
62 39 104 -43 
-23 -10 88 -76 
96 -23 -45 71 

-117 65 -57 123 
121 6 42 94 
83 107 -57 81 
-97 -76 -41 87 


31 71 102 -14 
-55 -12 71 112 
28 -37 125 83 
-73 56 91 54 

32 -12 -58 4 
110 -74 20 28 
79 25 -19 -34 
-94 -119 -118 -56 

116 -17 -97 -53 
27 -24 100 -16 
50 -79 -12 -99 
118 59 66 -23 

58 -77 -36 88 
-17 11 -54 -71 
-9 113 79 41 
78 4 63 5 

-46 4 46 23 
-62 -8 -75 8 
-86 -41 -29 28 
12 55 46 -9 

-81 -107 -123 104 
-13 -115 -116 76 
6 -80 117 -39 
-102 -47 15 -113 

-125 11 114 64 
62 39 104 -43 
-23 -10 88 -76 
96 -23 -45 71 

-117 65 -57 123 
121 6 42 94 
83 107 -57 81 
-97 -76 -41 87 


31 71 102 -14 
-55 -12 71 112 
28 -37 125 83 
-73 56 91 54 

32 -12 -58 4 
110 -74 20 28 
79 25 -19 -34 
-94 -119 -118 -56 

116 -17 -97 -53 
27 -24 100 -16 
50 -79 -12 -99 
118 59 66 -23 

58 -77 -36 88 
-17 11 -54 -71 
-9 113 79 41 
78 4 63 5 

-46 4 46 23 
-62 -8 -75 8 
-86 -41 -29 28 
12 55 46 -9 

-81 -107 -123 104 
-13 -115 -116 76 
6 -80 117 -39 
-102 -47 15 -113 

-125 11 114 64 
62 39 104 -43 
-23 -10 88 -76 
96 -23 -45 71 

-117 65 -57 123 
121 6 42 94 
83 107 -57 81 
-97 -76 -41 87 


31 71 102 -14 
-55 -12 71 112 
28 -37 125 83 
-73 56 91 54 

32 -12 -58 4 
110 -74 20 28 
79 25 -19 -34 
-94 -119 -118 -56 

116 -17 -97 -53 
27 -24 100 -16 
50 -79 -12 -99 
118 59 66 -23 

58 -77 -36 88 
-17 11 -54 -71 
-9 113 79 41 
78 4 63 5 

-46 4 46 23 
-62 -8 -75 8 
-86 -41 -29 28 
12 55 46 -9 

-81 -107 -123 104 
-13 -115 -116 76 
6 -80 117 -39 
-102 -47 15 -113 

-125 11 114 64 
62 39 104 -43 
-23 -10 88 -76 
96 -23 -45 71 

-117 65 -57 123 
121 6 42 94 
83 107 -57 81 
-97 -76 -41 87 



31 71 102 -14 
-55 -12 71 112 
28 -37 125 83 
-73 56 91 54 

32 -12 -58 4 
110 -74 20 28 
79 25 -19 -34 
-94 -119 -118 -56 

116 -17 -97 -53 
27 -24 100 -16 
50 -79 -12 -99 
118 59 66 -23 

58 -77 -36 88 
-17 11 -54 -71 
-9 113 79 41 
78 4 63 5 

-46 4 46 23 
-62 -8 -75 8 
-86 -41 -29 28 
12 55 46 -9 

-81 -107 -123 104 
-13 -115 -116 76 
6 -80 117 -39 
-102 -47 15 -113 

-125 11 114 64 
62 39 104 -43 
-23 -10 88 -76 
96 -23 -45 71 

-117 65 -57 123 
121 6 42 94 
83 107 -57 81 
-97 -76 -41 87 


31 71 102 -14 
-55 -12 71 112 
28 -37 125 83 
-73 56 91 54 

32 -12 -58 4 
110 -74 20 28 
79 25 -19 -34 
-94 -119 -118 -56 

116 -17 -97 -53 
27 -24 100 -16 
50 -79 -12 -99 
118 59 66 -23 

58 -77 -36 88 
-17 11 -54 -71 
-9 113 79 41 
78 4 63 5 

-46 4 46 23 
-62 -8 -75 8 
-86 -41 -29 28 
12 55 46 -9 

-81 -107 -123 104 
-13 -115 -116 76 
6 -80 117 -39 
-102 -47 15 -113 

-125 11 114 64 
62 39 104 -43 
-23 -10 88 -76 
96 -23 -45 71 

-117 65 -57 123 
121 6 42 94 
83 107 -57 81 
-97 -76 -41 87 


31 71 102 -14 
-55 -12 71 112 
28 -37 125 83 
-73 56 91 54 

32 -12 -58 4 
110 -74 20 28 
79 25 -19 -34 
-94 -119 -118 -56 

116 -17 -97 -53 
27 -24 100 -16 
50 -79 -12 -99 
118 59 66 -23 

58 -77 -36 88 
-17 11 -54 -71 
-9 113 79 41 
78 4 63 5 

-46 4 46 23 
-62 -8 -75 8 
-86 -41 -29 28 
12 55 46 -9 

-81 -107 -123 104 
-13 -115 -116 76 
6 -80 117 -39 
-102 -47 15 -113 

-125 11 114 64 
62 39 104 -43 
-23 -10 88 -76 
96 -23 -45 71 

-117 65 -57 123 
121 6 42 94 
83 107 -57 81 
-97 -76 -41 87 


31 71 102 -14 
-55 -12 71 112 
28 -37 125 83 
-73 56 91 54 

32 -12 -58 4 
110 -74 20 28 
79 25 -19 -34 
-94 -119 -118 -56 

116 -17 -97 -53 
27 -24 100 -16 
50 -79 -12 -99 
118 59 66 -23 

58 -77 -36 88 
-17 11 -54 -71 
-9 113 79 41 
78 4 63 5 

-46 4 46 23 
-62 -8 -75 8 
-86 -41 -29 28 
12 55 46 -9 

-81 -107 -123 104 
-13 -115 -116 76 
6 -80 117 -39 
-102 -47 15 -113 

-125 11 114 64 
62 39 104 -43 
-23 -10 88 -76 
96 -23 -45 71 

-117 65 -57 123 
121 6 42 94 
83 107 -57 81 
-97 -76 -41 87 



31 71 102 -14 
-55 -12 71 112 
28 -37 125 83 
-73 56 91 54 

32 -12 -58 4 
110 -74 20 28 
79 25 -19 -34 
-94 -119 -118 -56 

116 -17 -97 -53 
27 -24 100 -16 
50 -79 -12 -99 
118 59 66 -23 

58 -77 -36 88 
-17 11 -54 -71 
-9 113 79 41 
78 4 63 5 

-46 4 46 23 
-62 -8 -75 8 
-86 -41 -29 28 
12 55 46 -9 

-81 -107 -123 104 
-13 -115 -116 76 
6 -80 117 -39 
-102 -47 15 -113 

-125 11 114 64 
62 39 104 -43 
-23 -10 88 -76 
96 -23 -45 71 

-117 65 -57 123 
121 6 42 94 
83 107 -57 81 
-97 -76 -41 87 


31 71 102 -14 
-55 -12 71 112 
28 -37 125 83 
-73 56 91 54 

32 -12 -58 4 
110 -74 20 28 
79 25 -19 -34 
-94 -119 -118 -56 

116 -17 -97 -53 
27 -24 100 -16 
50 -79 -12 -99 
118 59 66 -23 

58 -77 -36 88 
-17 11 -54 -71 
-9 113 79 41 
78 4 63 5 

-46 4 46 23 
-62 -8 -75 8 
-86 -41 -29 28 
12 55 46 -9 

-81 -107 -123 104 
-13 -115 -116 76 
6 -80 117 -39 
-102 -47 15 -113 

-125 11 114 64 
62 39 104 -43 
-23 -10 88 -76 
96 -23 -45 71 

-117 65 -57 123 
121 6 42 94 
83 107 -57 81 
-97 -76 -41 87 


31 71 102 -14 
-55 -12 71 112 
28 -37 125 83 
-73 56 91 54 

32 -12 -58 4 
110 -74 20 28 
79 25 -19 -34 
-94 -119 -118 -56 

116 -17 -97 -53 
27 -24 100 -16 
50 -79 -12 -99 
118 59 66 -23 

58 -77 -36 88 
-17 11 -54 -71 
-9 113 79 41 
78 4 63 5 

-46 4 46 23 
-62 -8 -75 8 
-86 -41 -29 28 
12 55 46 -9 

-81 -107 -123 104 
-13 -115 -116 76 
6 -80 117 -39 
-102 -47 15 -113 

-125 11 114 64 
62 39 104 -43 
-23 -10 88 -76 
96 -23 -45 71 

-117 65 -57 123 
121 6 42 94 
83 107 -57 81 
-97 -76 -41 87 


31 71 102 -14 
-55 -12 71 112 
28 -37 125 83 
-73 56 91 54 

32 -12 -58 4 
110 -74 20 28 
79 25 -19 -34 
-94 -119 -118 -56 

116 -17 -97 -53 
27 -24 100 -16 
50 -79 -12 -99 
118 59 66 -23 

58 -77 -36 88 
-17 11 -54 -71 
-9 113 79 41 
78 4 63 5 

-46 4 46 23 
-62 -8 -75 8 
-86 -41 -29 28 
12 55 46 -9 

-81 -107 -123 104 
-13 -115 -116 76 
6 -80 117 -39 
-102 -47 15 -113 

-125 11 114 64 
62 39 104 -43 
-23 -10 88 -76 
96 -23 -45 71 

-117 65 -57 123 
121 6 42 94 
83 107 -57 81 
-97 -76 -41 87 



31 71 102 -14 
-55 -12 71 112 
28 -37 125 83 
-73 56 91 54 

32 -12 -58 4 
110 -74 20 28 
79 25 -19 -34 
-94 -119 -118 -56 

116 -17 -97 -53 
27 -24 100 -16 
50 -79 -12 -99 
118 59 66 -23 

58 -77 -36 88 
-17 11 -54 -71 
-9 113 79 41 
78 4 63 5 

-46 4 46 23 
-62 -8 -75 8 
-86 -41 -29 28 
12 55 46 -9 

-81 -107 -123 104 
-13 -115 -116 76 
6 -80 117 -39 
-102 -47 15 -113 

-125 11 114 64 
62 39 104 -43 
-23 -10 88 -76 
96 -23 -45 71 

-117 65 -57 123 
121 6 42 94 
83 107 -57 81 
-97 -76 -41 87 


31 71 102 -14 
-55 -12 71 112 
28 -37 125 83 
-73 56 91 54 

32 -12 -58 4 
110 -74 20 28 
79 25 -19 -34 
-94 -119 -118 -56 

116 -17 -97 -53 
27 -24 100 -16 
50 -79 -12 -99 
118 59 66 -23 

58 -77 -36 88 
-17 11 -54 -71 
-9 113 79 41 
78 4 63 5 

-46 4 46 23 
-62 -8 -75 8 
-86 -41 -29 28 
12 55 46 -9 

-81 -107 -123 104 
-13 -115 -116 76 
6 -80 117 -39 
-102 -47 15 -113 

-125 11 114 64 
62 39 104 -43 
-23 -10 88 -76 
96 -23 -45 71 

-117 65 -57 123 
121 6 42 94 
83 107 -57 81 
-97 -76 -41 87 


31 71 102 -14 
-55 -12 71 112 
28 -37 125 83 
-73 56 91 54 

32 -12 -58 4 
110 -74 20 28 
79 25 -19 -34 
-94 -119 -118 -56 

116 -17 -97 -53 
27 -24 100 -16 
50 -79 -12 -99 
118 59 66 -23 

58 -77 -36 88 
-17 11 -54 -71 
-9 113 79 41 
78 4 63 5 

-46 4 46 23 
-62 -8 -75 8 
-86 -41 -29 28 
12 55 46 -9 

-81 -107 -123 104 
-13 -115 -116 76 
6 -80 117 -39 
-102 -47 15 -113 

-125 11 114 64 
62 39 104 -43 
-23 -10 88 -76 
96 -23 -45 71 

-117 65 -57 123 
121 6 42 94 
83 107 -57 81 
-97 -76 -41 87 


31 71 102 -14 
-55 -12 71 112 
28 -37 125 83 
-73 56 91 54 

32 -12 -58 4 
110 -74 20 28 
79 25 -19 -34 
-94 -119 -118 -56 

116 -17 -97 -53 
27 -24 100 -16 
50 -79 -12 -99 
118 59 66 -23 

58 -77 -36 88 
-17 11 -54 -71 
-9 113 79 41 
78 4 63 5 

-46 4 46 23 
-62 -8 -75 8 
-86 -41 -29 28 
12 55 46 -9 

-81 -107 -123 104 
-13 -115 -116 76 
6 -80 117 -39 
-102 -47 15 -113 

-125 11 114 64 
62 39 104 -43 
-23 -10 88 -76 
96 -23 -45 71 

-117 65 -57 123 
121 6 42 94 
83 107 -57 81 
-97 -76 -41 87 



31 71 102 -14 
-55 -12 71 112 
28 -37 125 83 
-73 56 91 54 

32 -12 -58 4 
110 -74 20 28 
79 25 -19 -34 
-94 -119 -118 -56 

116 -17 -97 -53 
27 -24 100 -16 
50 -79 -12 -99 
118 59 66 -23 

58 -77 -36 88 
-17 11 -54 -71 
-9 113 79 41 
78 4 63 5 

-46 4 46 23 
-62 -8 -75 8 
-86 -41 -29 28 
12 55 46 -9 

-81 -107 -123 104 
-13 -115 -116 76 
6 -80 117 -39 
-102 -47 15 -113 

-125 11 114 64 
62 39 104 -43 
-23 -10 88 -76 
96 -23 -45 71 

-117 65 -57 123 
121 6 42 94 
83 107 -57 81 
-97 -76 -41 87 


31 71 102 -14 
-55 -12 71 112 
28 -37 125 83 
-73 56 91 54 

32 -12 -58 4 
110 -74 20 28 
79 25 -19 -34 
-94 -119 -118 -56 

116 -17 -97 -53 
27 -24 100 -16 
50 -79 -12 -99 
118 59 66 -23 

58 -77 -36 88 
-17 11 -54 -71 
-9 113 79 41 
78 4 63 5 

-46 4 46 23 
-62 -8 -75 8 
-86 -41 -29 28 
12 55 46 -9 

-81 -107 -123 104 
-13 -115 -116 76 
6 -80 117 -39 
-102 -47 15 -113 

-125 11 114 64 
62 39 104 -43 
-23 -10 88 -76 
96 -23 -45 71 

-117 65 -57 123 
121 6 42 94 
83 107 -57 81 
-97 -76 -41 87 


31 71 102 -14 
-55 -12 71 112 
28 -37 125 83 
-73 56 91 54 

32 -12 -58 4 
110 -74 20 28 
79 25 -19 -34 
-94 -119 -118 -56 

116 -17 -97 -53 
27 -24 100 -16 
50 -79 -12 -99 
118 59 66 -23 

58 -77 -36 88 
-17 11 -54 -71 
-9 113 79 41 
78 4 63 5 

-46 4 46 23 
-62 -8 -75 8 
-86 -41 -29 28 
12 55 46 -9 

-81 -107 -123 104 
-13 -115 -116 76 
6 -80 117 -39 
-102 -47 15 -113 

-125 11 114 64 
62 39 104 -43 
-23 -10 88 -76 
96 -23 -45 71 

-117 65 -57 123 
121 6 42 94 
83 107 -57 81 
-97 -76 -41 87 


31 71 102 -14 
-55 -12 71 112 
28 -37 125 83 
-73 56 91 54 

32 -12 -58 4 
110 -74 20 28 
79 25 -19 -34 
-94 -119 -118 -56 

116 -17 -97 -53 
27 -24 100 -16 
50 -79 -12 -99 
118 59 66 -23 

58 -77 -36 88 
-17 11 -54 -71 
-9 113 79 41 
78 4 63 5 

-46 4 46 23 
-62 -8 -75 8 
-86 -41 -29 28 
12 55 46 -9 

-81 -107 -123 104 
-13 -115 -116 76 
6 -80 117 -39 
-102 -47 15 -113 

-125 11 114 64 
62 39 104 -43 
-23 -10 88 -76 
96 -23 -45 71 

-117 65 -57 123 
121 6 42 94 
83 107 -57 81 
-97 -76 -41 87 



31 71 102 -14 
-55 -12 71 112 
28 -37 125 83 
-73 56 91 54 

32 -12 -58 4 
110 -74 20 28 
79 25 -19 -34 
-94 -119 -118 -56 

116 -17 -97 -53 
27 -24 100 -16 
50 -79 -12 -99 
118 59 66 -23 

58 -77 -36 88 
-17 11 -54 -71 
-9 113 79 41 
78 4 63 5 

-46 4 46 23 
-62 -8 -75 8 
-86 -41 -29 28 
12 55 46 -9 

-81 -107 -123 104 
-13 -115 -116 76 
6 -80 117 -39 
-102 -47 15 -113 

-125 11 114 64 
62 39 104 -43 
-23 -10 88 -76 
96 -23 -45 71 

-117 65 -57 123 
121 6 42 94 
83 107 -57 81 
-97 -76 -41 87 


31 71 102 -14 
-55 -12 71 112 
28 -37 125 83 
-73 56 91 54 

32 -12 -58 4 
110 -74 20 28 
79 25 -19 -34 
-94 -119 -118 -56 

116 -17 -97 -53 
27 -24 100 -16 
50 -79 -12 -99 
118 59 66 -23 

58 -77 -36 88 
-17 11 -54 -71 
-9 113 79 41 
78 4 63 5 

-46 4 46 23 
-62 -8 -75 8 
-86 -41 -29 28 
12 55 46 -9 

-81 -107 -123 104 
-13 -115 -116 76 
6 -80 117 -39 
-102 -47 15 -113 

-125 11 114 64 
62 39 104 -43 
-23 -10 88 -76 
96 -23 -45 71 

-117 65 -57 123 
121 6 42 94 
83 107 -57 81 
-97 -76 -41 87 


31 71 102 -14 
-55 -12 71 112 
28 -37 125 83 
-73 56 91 54 

32 -12 -58 4 
110 -74 20 28 
79 25 -19 -34 
-94 -119 -118 -56 

116 -17 -97 -53 
27 -24 100 -16 
50 -79 -12 -99 
118 59 66 -23 

58 -77 -36 88 
-17 11 -54 -71 
-9 113 79 41 
78 4 63 5 

-46 4 46 23 
-62 -8 -75 8 
-86 -41 -29 28 
12 55 46 -9 

-81 -107 -123 104 
-13 -115 -116 76 
6 -80 117 -39 
-102 -47 15 -113 

-125 11 114 64 
62 39 104 -43 
-23 -10 88 -76 
96 -23 -45 71 

-117 65 -57 123 
121 6 42 94 
83 107 -57 81 
-97 -76 -41 87 


31 71 102 -14 
-55 -12 71 112 
28 -37 125 83 
-73 56 91 54 

32 -12 -58 4 
110 -74 20 28 
79 25 -19 -34 
-94 -119 -118 -56 

116 -17 -97 -53 
27 -24 100 -16 
50 -79 -12 -99 
118 59 66 -23 

58 -77 -36 88 
-17 11 -54 -71 
-9 113 79 41 
78 4 63 5 

-46 4 46 23 
-62 -8 -75 8 
-86 -41 -29 28 
12 55 46 -9 

-81 -107 -123 104 
-13 -115 -116 76 
6 -80 117 -39 
-102 -47 15 -113 

-125 11 114 64 
62 39 104 -43 
-23 -10 88 -76 
96 -23 -45 71 

-117 65 -57 123 
121 6 42 94 
83 107 -57 81 
-97 -76 -41 87 



31 71 102 -14 
-55 -12 71 112 
28 -37 125 83 
-73 56 91 54 

32 -12 -58 4 
110 -74 20 28 
79 25 -19 -34 
-94 -119 -118 -56 

116 -17 -97 -53 
27 -24 100 -16 
50 -79 -12 -99 
118 59 66 -23 

58 -77 -36 88 
-17 11 -54 -71 
-9 113 79 41 
78 4 63 5 

-46 4 46 23 
-62 -8 -75 8 
-86 -41 -29 28 
12 55 46 -9 

-81 -107 -123 104 
-13 -115 -116 76 
6 -80 117 -39 
-102 -47 15 -113 

-125 11 114 64 
62 39 104 -43 
-23 -10 88 -76 
96 -23 -45 71 

-117 65 -57 123 
121 6 42 94 
83 107 -57 81 
-97 -76 -41 87 


31 71 102 -14 
-55 -12 71 112 
28 -37 125 83 
-73 56 91 54 

32 -12 -58 4 
110 -74 20 28 
79 25 -19 -34 
-94 -119 -118 -56 

116 -17 -97 -53 
27 -24 100 -16 
50 -79 -12 -99 
118 59 66 -23 

58 -77 -36 88 
-17 11 -54 -71 
-9 113 79 41 
78 4 63 5 

-46 4 46 23 
-62 -8 -75 8 
-86 -41 -29 28 
12 55 46 -9 

-81 -107 -123 104 
-13 -115 -116 76 
6 -80 117 -39 
-102 -47 15 -113 

-125 11 114 64 
62 39 104 -43 
-23 -10 88 -76 
96 -23 -45 71 

-117 65 -57 123 
121 6 42 94 
83 107 -57 81 
-97 -76 -41 87 


31 71 102 -14 
-55 -12 71 112 
28 -37 125 83 
-73 56 91 54 

32 -12 -58 4 
110 -74 20 28 
79 25 -19 -34 
-94 -119 -118 -56 

116 -17 -97 -53 
27 -24 100 -16 
50 -79 -12 -99 
118 59 66 -23 

58 -77 -36 88 
-17 11 -54 -71 
-9 113 79 41 
78 4 63 5 

-46 4 46 23 
-62 -8 -75 8 
-86 -41 -29 28 
12 55 46 -9 

-81 -107 -123 104 
-13 -115 -116 76 
6 -80 117 -39 
-102 -47 15 -113 

-125 11 114 64 
62 39 104 -43 
-23 -10 88 -76 
96 -23 -45 71 

-117 65 -57 123 
121 6 42 94 
83 107 -57 81 
-97 -76 -41 87 


31 71 102 -14 
-55 -12 71 112 
28 -37 125 83 
-73 56 91 54 

32 -12 -58 4 
110 -74 20 28 
79 25 -19 -34 
-94 -119 -118 -56 

116 -17 -97 -53 
27 -24 100 -16 
50 -79 -12 -99 
118 59 66 -23 

58 -77 -36 88 
-17 11 -54 -71 
-9 113 79 41 
78 4 63 5 

-46 4 46 23 
-62 -8 -75 8 
-86 -41 -29 28 
12 55 46 -9 

-81 -107 -123 104 
-13 -115 -116 76 
6 -80 117 -39 
-102 -47 15 -113 

-125 11 114 64 
62 39 104 -43 
-23 -10 88 -76 
96 -23 -45 71 

-117 65 -57 123 
121 6 42 94 
83 107 -57 81 
-97 -76 -41 87 



31 71 102 -14 
-55 -12 71 112 
28 -37 125 83 
-73 56 91 54 

32 -12 -58 4 
110 -74 20 28 
79 25 -19 -34 
-94 -119 -118 -56 

116 -17 -97 -53 
27 -24 100 -16 
50 -79 -12 -99 
118 59 66 -23 

58 -77 -36 88 
-17 11 -54 -71 
-9 113 79 41 
78 4 63 5 

-46 4 46 23 
-62 -8 -75 8 
-86 -41 -29 28 
12 55 46 -9 

-81 -107 -123 104 
-13 -115 -116 76 
6 -80 117 -39 
-102 -47 15 -113 

-125 11 114 64 
62 39 104 -43 
-23 -10 88 -76 
96 -23 -45 71 

-117 65 -57 123 
121 6 42 94 
83 107 -57 81 
-97 -76 -41 87 


31 71 102 -14 
-55 -12 71 112 
28 -37 125 83 
-73 56 91 54 

32 -12 -58 4 
110 -74 20 28 
79 25 -19 -34 
-94 -119 -118 -56 

116 -17 -97 -53 
27 -24 100 -16 
50 -79 -12 -99 
118 59 66 -23 

58 -77 -36 88 
-17 11 -54 -71 
-9 113 79 41 
78 4 63 5 

-46 4 46 23 
-62 -8 -75 8 
-86 -41 -29 28 
12 55 46 -9 

-81 -107 -123 104 
-13 -115 -116 76 
6 -80 117 -39 
-102 -47 15 -113 

-125 11 114 64 
62 39 104 -43 
-23 -10 88 -76 
96 -23 -45 71 

-117 65 -57 123 
121 6 42 94 
83 107 -57 81 
-97 -76 -41 87 


31 71 102 -14 
-55 -12 71 112 
28 -37 125 83 
-73 56 91 54 

32 -12 -58 4 
110 -74 20 28 
79 25 -19 -34 
-94 -119 -118 -56 

116 -17 -97 -53 
27 -24 100 -16 
50 -79 -12 -99 
118 59 66 -23 

58 -77 -36 88 
-17 11 -54 -71 
-9 113 79 41 
78 4 63 5 

-46 4 46 23 
-62 -8 -75 8 
-86 -41 -29 28 
12 55 46 -9 

-81 -107 -123 104 
-13 -115 -116 76 
6 -80 117 -39 
-102 -47 15 -113 

-125 11 114 64 
62 39 104 -43 
-23 -10 88 -76 
96 -23 -45 71 

-117 65 -57 123 
121 6 42 94 
83 107 -57 81 
-97 -76 -41 87 


31 71 102 -14 
-55 -12 71 112 
28 -37 125 83 
-73 56 91 54 

32 -12 -58 4 
110 -74 20 28 
79 25 -19 -34 
-94 -119 -118 -56 

116 -17 -97 -53 
27 -24 100 -16 
50 -79 -12 -99 
118 59 66 -23 

58 -77 -36 88 
-17 11 -54 -71 
-9 113 79 41 
78 4 63 5 

-46 4 46 23 
-62 -8 -75 8 
-86 -41 -29 28 
12 55 46 -9 

-81 -107 -123 104 
-13 -115 -116 76 
6 -80 117 -39 
-102 -47 15 -113 

-125 11 114 64 
62 39 104 -43 
-23 -10 88 -76 
96 -23 -45 71 

-117 65 -57 123 
121 6 42 94 
83 107 -57 81 
-97 -76 -41 87 



31 71 102 -14 
-55 -12 71 112 
28 -37 125 83 
-73 56 91 54 

32 -12 -58 4 
110 -74 20 28 
79 25 -19 -34 
-94 -119 -118 -56 

116 -17 -97 -53 
27 -24 100 -16 
50 -79 -12 -99 
118 59 66 -23 

58 -77 -36 88 
-17 11 -54 -71 
-9 113 79 41 
78 4 63 5 

-46 4 46 23 
-62 -8 -75 8 
-86 -41 -29 28 
12 55 46 -9 

-81 -107 -123 104 
-13 -115 -116 76 
6 -80 117 -39 
-102 -47 15 -113 

-125 11 114 64 
62 39 104 -43 
-23 -10 88 -76 
96 -23 -45 71 

-117 65 -57 123 
121 6 42 94 
83 107 -57 81 
-97 -76 -41 87 


31 71 102 -14 
-55 -12 71 112 
28 -37 125 83 
-73 56 91 54 

32 -12 -58 4 
110 -74 20 28 
79 25 -19 -34 
-94 -119 -118 -56 

116 -17 -97 -53 
27 -24 100 -16 
50 -79 -12 -99 
118 59 66 -23 

58 -77 -36 88 
-17 11 -54 -71 
-9 113 79 41 
78 4 63 5 

-46 4 46 23 
-62 -8 -75 8 
-86 -41 -29 28 
12 55 46 -9 

-81 -107 -123 104 
-13 -115 -116 76 
6 -80 117 -39 
-102 -47 15 -113 

-125 11 114 64 
62 39 104 -43 
-23 -10 88 -76 
96 -23 -45 71 

-117 65 -57 123 
121 6 42 94 
83 107 -57 81 
-97 -76 -41 87 


31 71 102 -14 
-55 -12 71 112 
28 -37 125 83 
-73 56 91 54 

32 -12 -58 4 
110 -74 20 28 
79 25 -19 -34 
-94 -119 -118 -56 

116 -17 -97 -53 
27 -24 100 -16 
50 -79 -12 -99 
118 59 66 -23 

58 -77 -36 88 
-17 11 -54 -71 
-9 113 79 41 
78 4 63 5 

-46 4 46 23 
-62 -8 -75 8 
-86 -41 -29 28 
12 55 46 -9 

-81 -107 -123 104 
-13 -115 -116 76 
6 -80 117 -39 
-102 -47 15 -113 

-125 11 114 64 
62 39 104 -43 
-23 -10 88 -76 
96 -23 -45 71 

-117 65 -57 123 
121 6 42 94 
83 107 -57 81 
-97 -76 -41 87 


31 71 102 -14 
-55 -12 71 112 
28 -37 125 83 
-73 56 91 54 

32 -12 -58 4 
110 -74 20 28 
79 25 -19 -34 
-94 -119 -118 -56 

116 -17 -97 -53 
27 -24 100 -16 
50 -79 -12 -99 
118 59 66 -23 

58 -77 -36 88 
-17 11 -54 -71 
-9 113 79 41 
78 4 63 5 

-46 4 46 23 
-62 -8 -75 8 
-86 -41 -29 28 
12 55 46 -9 

-81 -107 -123 104 
-13 -115 -116 76 
6 -80 117 -39 
-102 -47 15 -113 

-125 11 114 64 
62 39 104 -43 
-23 -10 88 -76 
96 -23 -45 71 

-117 65 -57 123 
121 6 42 94 
83 107 -57 81 
-97 -76 -41 87 




-6 -44 80 -28 
-3 73 -45 -5 
75 -107 96 0 
104 28 34 -28 

66 106 -1 3 
16 -47 33 -42 
126 54 -92 59 
-93 -101 -114 -104 

108 -20 -12 -32 
-78 33 60 -123 
-113 13 -63 -91 
81 -28 -76 -124 

47 67 40 -74 
94 26 67 114 
69 -55 60 -62 
-1 -61 -73 38 

-46 37 -104 39 
74 -114 66 0 
110 -2 -93 -98 
-58 -54 58 -35 

-43 -27 -20 -44 
-66 -19 -54 21 
28 90 -29 56 
-63 47 118 24 

-15 -21 -86 -18 
-114 -43 -55 7 
-94 -94 -8 96 
33 48 21 59 

-6 18 -64 116 
-81 -96 123 -68 
83 -2 33 -34 
41 105 98 -38 


-6 -44 80 -28 
-3 73 -45 -5 
75 -107 96 0 
104 28 34 -28 

66 106 -1 3 
16 -47 33 -42 
126 54 -92 59 
-93 -101 -114 -104 

108 -20 -12 -32 
-78 33 60 -123 
-113 13 -63 -91 
81 -28 -76 -124 

47 67 40 -74 
94 26 67 114 
69 -55 60 -62 
-1 -61 -73 38 

-46 37 -104 39 
74 -114 66 0 
110 -2 -93 -98 
-58 -54 58 -35 

-43 -27 -20 -44 
-66 -19 -54 21 
28 90 -29 56 
-63 47 118 24 

-15 -21 -86 -18 
-114 -43 -55 7 
-94 -94 -8 96 
33 48 21 59 

-6 18 -64 116 
-81 -96 123 -68 
83 -2 33 -34 
41 105 98 -38 


-6 -44 80 -28 
-3 73 -45 -5 
75 -107 96 0 
104 28 34 -28 

66 106 -1 3 
16 -47 33 -42 
126 54 -92 59 
-93 -101 -114 -104 

108 -20 -12 -32 
-78 33 60 -123 
-113 13 -63 -91 
81 -28 -76 -124 

47 67 40 -74 
94 26 67 114 
69 -55 60 -62 
-1 -61 -73 38 

-46 37 -104 39 
74 -114 66 0 
110 -2 -93 -98 
-58 -54 58 -35 

-43 -27 -20 -44 
-66 -19 -54 21 
28 90 -29 56 
-63 47 118 24 

-15 -21 -86 -18 
-114 -43 -55 7 
-94 -94 -8 96 
33 48 21 59 

-6 18 -64 116 
-81 -96 123 -68 
83 -2 33 -34 
41 105 98 -38 


-6 -44 80 -28 
-3 73 -45 -5 
75 -107 96 0 
104 28 34 -28 

66 106 -1 3 
16 -47 33 -42 
126 54 -92 59 
-93 -101 -114 -104 

108 -20 -12 -32 
-78 33 60 -123 
-113 13 -63 -91 
81 -28 -76 -124 

47 67 40 -74 
94 26 67 114 
69 -55 60 -62 
-1 -61 -73 38 

-46 37 -104 39 
74 -114 66 0 
110 -2 -93 -98 
-58 -54 58 -35 

-43 -27 -20 -44 
-66 -19 -54 21 
28 90 -29 56 
-63 47 118 24 

-15 -21 -86 -18 
-114 -43 -55 7 
-94 -94 -8 96 
33 48 21 59 

-6 18 -64 116 
-81 -96 123 -68 
83 -2 33 -34 
41 105 98 -38 



-6 -44 80 -28 
-3 73 -45 -5 
75 -107 96 0 
104 28 34 -28 

66 106 -1 3 
16 -47 33 -42 
126 54 -92 59 
-93 -101 -114 -104 

108 -20 -12 -32 
-78 33 60 -123 
-113 13 -63 -91 
81 -28 -76 -124 

47 67 40 -74 
94 26 67 114 
69 -55 60 -62 
-1 -61 -73 38 

-46 37 -104 39 
74 -114 66 0 
110 -2 -93 -98 
-58 -54 58 -35 

-43 -27 -20 -44 
-66 -19 -54 21 
28 90 -29 56 
-63 47 118 24 

-15 -21 -86 -18 
-114 -43 -55 7 
-94 -94 -8 96 
33 48 21 59 

-6 18 -64 116 
-81 -96 123 -68 
83 -2 33 -34 
41 105 98 -38 


-6 -44 80 -28 
-3 73 -45 -5 
75 -107 96 0 
104 28 34 -28 

66 106 -1 3 
16 -47 33 -42 
126 54 -92 59 
-93 -101 -114 -104 

108 -20 -12 -32 
-78 33 60 -123 
-113 13 -63 -91 
81 -28 -76 -124 

47 67 40 -74 
94 26 67 114 
69 -55 60 -62 
-1 -61 -73 38 

-46 37 -104 39 
74 -114 66 0 
110 -2 -93 -98 
-58 -54 58 -35 

-43 -27 -20 -44 
-66 -19 -54 21 
28 90 -29 56 
-63 47 118 24 

-15 -21 -86 -18 
-114 -43 -55 7 
-94 -94 -8 96 
33 48 21 59 

-6 18 -64 116 
-81 -96 123 -68 
83 -2 33 -34 
41 105 98 -38 


-6 -44 80 -28 
-3 73 -45 -5 
75 -107 96 0 
104 28 34 -28 

66 106 -1 3 
16 -47 33 -42 
126 54 -92 59 
-93 -101 -114 -104 

108 -20 -12 -32 
-78 33 60 -123 
-113 13 -63 -91 
81 -28 -76 -124 

47 67 40 -74 
94 26 67 114 
69 -55 60 -62 
-1 -61 -73 38 

-46 37 -104 39 
74 -114 66 0 
110 -2 -93 -98 
-58 -54 58 -35 

-43 -27 -20 -44 
-66 -19 -54 21 
28 90 -29 56 
-63 47 118 24 

-15 -21 -86 -18 
-114 -43 -55 7 
-94 -94 -8 96 
33 48 21 59 

-6 18 -64 116 
-81 -96 123 -68 
83 -2 33 -34 
41 105 98 -38 


-6 -44 80 -28 
-3 73 -45 -5 
75 -107 96 0 
104 28 34 -28 

66 106 -1 3 
16 -47 33 -42 
126 54 -92 59 
-93 -101 -114 -104 

108 -20 -12 -32 
-78 33 60 -123 
-113 13 -63 -91 
81 -28 -76 -124 

47 67 40 -74 
94 26 67 114 
69 -55 60 -62 
-1 -61 -73 38 

-46 37 -104 39 
74 -114 66 0 
110 -2 -93 -98 
-58 -54 58 -35 

-43 -27 -20 -44 
-66 -19 -54 21 
28 90 -29 56 
-63 47 118 24 

-15 -21 -86 -18 
-114 -43 -55 7 
-94 -94 -8 96 
33 48 21 59 

-6 18 -64 116 
-81 -96 123 -68 
83 -2 33 -34 
41 105 98 -38 



-6 -44 80 -28 
-3 73 -45 -5 
75 -107 96 0 
104 28 34 -28 

66 106 -1 3 
16 -47 33 -42 
126 54 -92 59 
-93 -101 -114 -104 

108 -20 -12 -32 
-78 33 60 -123 
-113 13 -63 -91 
81 -28 -76 -124 

47 67 40 -74 
94 26 67 114 
69 -55 60 -62 
-1 -61 -73 38 

-46 37 -104 39 
74 -114 66 0 
110 -2 -93 -98 
-58 -54 58 -35 

-43 -27 -20 -44 
-66 -19 -54 21 
28 90 -29 56 
-63 47 118 24 

-15 -21 -86 -18 
-114 -43 -55 7 
-94 -94 -8 96 
33 48 21 59 

-6 18 -64 116 
-81 -96 123 -68 
83 -2 33 -34 
41 105 98 -38 


-6 -44 80 -28 
-3 73 -45 -5 
75 -107 96 0 
104 28 34 -28 

66 106 -1 3 
16 -47 33 -42 
126 54 -92 59 
-93 -101 -114 -104 

108 -20 -12 -32 
-78 33 60 -123 
-113 13 -63 -91 
81 -28 -76 -124 

47 67 40 -74 
94 26 67 114 
69 -55 60 -62 
-1 -61 -73 38 

-46 37 -104 39 
74 -114 66 0 
110 -2 -93 -98 
-58 -54 58 -35 

-43 -27 -20 -44 
-66 -19 -54 21 
28 90 -29 56 
-63 47 118 24 

-15 -21 -86 -18 
-114 -43 -55 7 
-94 -94 -8 96 
33 48 21 59 

-6 18 -64 116 
-81 -96 123 -68 
83 -2 33 -34 
41 105 98 -38 


-6 -44 80 -28 
-3 73 -45 -5 
75 -107 96 0 
104 28 34 -28 

66 106 -1 3 
16 -47 33 -42 
126 54 -92 59 
-93 -101 -114 -104 

108 -20 -12 -32 
-78 33 60 -123 
-113 13 -63 -91 
81 -28 -76 -124 

47 67 40 -74 
94 26 67 114 
69 -55 60 -62 
-1 -61 -73 38 

-46 37 -104 39 
74 -114 66 0 
110 -2 -93 -98 
-58 -54 58 -35 

-43 -27 -20 -44 
-66 -19 -54 21 
28 90 -29 56 
-63 47 118 24 

-15 -21 -86 -18 
-114 -43 -55 7 
-94 -94 -8 96 
33 48 21 59 

-6 18 -64 116 
-81 -96 123 -68 
83 -2 33 -34 
41 105 98 -38 


-6 -44 80 -28 
-3 73 -45 -5 
75 -107 96 0 
104 28 34 -28 

66 106 -1 3 
16 -47 33 -42 
126 54 -92 59 
-93 -101 -114 -104 

108 -20 -12 -32 
-78 33 60 -123 
-113 13 -63 -91 
81 -28 -76 -124 

47 67 40 -74 
94 26 67 114 
69 -55 60 -62 
-1 -61 -73 38 

-46 37 -104 39 
74 -114 66 0 
110 -2 -93 -98 
-58 -54 58 -35 

-43 -27 -20 -44 
-66 -19 -54 21 
28 90 -29 56 
-63 47 118 24 

-15 -21 -86 -18 
-114 -43 -55 7 
-94 -94 -8 96 
33 48 21 59 

-6 18 -64 116 
-81 -96 123 -68 
83 -2 33 -34 
41 105 98 -38 



-6 -44 80 -28 
-3 73 -45 -5 
75 -107 96 0 
104 28 34 -28 

66 106 -1 3 
16 -47 33 -42 
126 54 -92 59 
-93 -101 -114 -104 

108 -20 -12 -32 
-78 33 60 -123 
-113 13 -63 -91 
81 -28 -76 -124 

47 67 40 -74 
94 26 67 114 
69 -55 60 -62 
-1 -61 -73 38 

-46 37 -104 39 
74 -114 66 0 
110 -2 -93 -98 
-58 -54 58 -35 

-43 -27 -20 -44 
-66 -19 -54 21 
28 90 -29 56 
-63 47 118 24 

-15 -21 -86 -18 
-114 -43 -55 7 
-94 -94 -8 96 
33 48 21 59 

-6 18 -64 116 
-81 -96 123 -68 
83 -2 33 -34 
41 105 98 -38 


-6 -44 80 -28 
-3 73 -45 -5 
75 -107 96 0 
104 28 34 -28 

66 106 -1 3 
16 -47 33 -42 
126 54 -92 59 
-93 -101 -114 -104 

108 -20 -12 -32 
-78 33 60 -123 
-113 13 -63 -91 
81 -28 -76 -124 

47 67 40 -74 
94 26 67 114 
69 -55 60 -62 
-1 -61 -73 38 

-46 37 -104 39 
74 -114 66 0 
110 -2 -93 -98 
-58 -54 58 -35 

-43 -27 -20 -44 
-66 -19 -54 21 
28 90 -29 56 
-63 47 118 24 

-15 -21 -86 -18 
-114 -43 -55 7 
-94 -94 -8 96 
33 48 21 59 

-6 18 -64 116 
-81 -96 123 -68 
83 -2 33 -34 
41 105 98 -38 


-6 -44 80 -28 
-3 73 -45 -5 
75 -107 96 0 
104 28 34 -28 

66 106 -1 3 
16 -47 33 -42 
126 54 -92 59 
-93 -101 -114 -104 

108 -20 -12 -32 
-78 33 60 -123 
-113 13 -63 -91 
81 -28 -76 -124 

47 67 40 -74 
94 26 67 114 
69 -55 60 -62 
-1 -61 -73 38 

-46 37 -104 39 
74 -114 66 0 
110 -2 -93 -98 
-58 -54 58 -35 

-43 -27 -20 -44 
-66 -19 -54 21 
28 90 -29 56 
-63 47 118 24 

-15 -21 -86 -18 
-114 -43 -55 7 
-94 -94 -8 96 
33 48 21 59 

-6 18 -64 116 
-81 -96 123 -68 
83 -2 33 -34 
41 105 98 -38 


-6 -44 80 -28 
-3 73 -45 -5 
75 -107 96 0 
104 28 34 -28 

66 106 -1 3 
16 -47 33 -42 
126 54 -92 59 
-93 -101 -114 -104 

108 -20 -12 -32 
-78 33 60 -123 
-113 13 -63 -91 
81 -28 -76 -124 

47 67 40 -74 
94 26 67 114 
69 -55 60 -62 
-1 -61 -73 38 

-46 37 -104 39 
74 -114 66 0 
110 -2 -93 -98 
-58 -54 58 -35 

-43 -27 -20 -44 
-66 -19 -54 21 
28 90 -29 56 
-63 47 118 24 

-15 -21 -86 -18 
-114 -43 -55 7 
-94 -94 -8 96 
33 48 21 59 

-6 18 -64 116 
-81 -96 123 -68 
83 -2 33 -34 
41 105 98 -38 



-6 -44 80 -28 
-3 73 -45 -5 
75 -107 96 0 
104 28 34 -28 

66 106 -1 3 
16 -47 33 -42 
126 54 -92 59 
-93 -101 -114 -104 

108 -20 -12 -32 
-78 33 60 -123 
-113 13 -63 -91 
81 -28 -76 -124 

47 67 40 -74 
94 26 67 114 
69 -55 60 -62 
-1 -61 -73 38 

-46 37 -104 39 
74 -114 66 0 
110 -2 -93 -98 
-58 -54 58 -35 

-43 -27 -20 -44 
-66 -19 -54 21 
28 90 -29 56 
-63 47 118 24 

-15 -21 -86 -18 
-114 -43 -55 7 
-94 -94 -8 96 
33 48 21 59 

-6 18 -64 116 
-81 -96 123 -68 
83 -2 33 -34 
41 105 98 -38 


-6 -44 80 -28 
-3 73 -45 -5 
75 -107 96 0 
104 28 34 -28 

66 106 -1 3 
16 -47 33 -42 
126 54 -92 59 
-93 -101 -114 -104 

108 -20 -12 -32 
-78 33 60 -123 
-113 13 -63 -91 
81 -28 -76 -124 

47 67 40 -74 
94 26 67 114 
69 -55 60 -62 
-1 -61 -73 38 

-46 37 -104 39 
74 -114 66 0 
110 -2 -93 -98 
-58 -54 58 -35 

-43 -27 -20 -44 
-66 -19 -54 21 
28 90 -29 56 
-63 47 118 24 

-15 -21 -86 -18 
-114 -43 -55 7 
-94 -94 -8 96 
33 48 21 59 

-6 18 -64 116 
-81 -96 123 -68 
83 -2 33 -34 
41 105 98 -38 


-6 -44 80 -28 
-3 73 -45 -5 
75 -107 96 0 
104 28 34 -28 

66 106 -1 3 
16 -47 33 -42 
126 54 -92 59 
-93 -101 -114 -104 

108 -20 -12 -32 
-78 33 60 -123 
-113 13 -63 -91 
81 -28 -76 -124 

47 67 40 -74 
94 26 67 114 
69 -55 60 -62 
-1 -61 -73 38 

-46 37 -104 39 
74 -114 66 0 
110 -2 -93 -98 
-58 -54 58 -35 

-43 -27 -20 -44 
-66 -19 -54 21 
28 90 -29 56 
-63 47 118 24 

-15 -21 -86 -18 
-114 -43 -55 7 
-94 -94 -8 96 
33 48 21 59 

-6 18 -64 116 
-81 -96 123 -68 
83 -2 33 -34 
41 105 98 -38 


-6 -44 80 -28 
-3 73 -45 -5 
75 -107 96 0 
104 28 34 -28 

66 106 -1 3 
16 -47 33 -42 
126 54 -92 59 
-93 -101 -114 -104 

108 -20 -12 -32 
-78 33 60 -123 
-113 13 -63 -91 
81 -28 -76 -124 

47 67 40 -74 
94 26 67 114 
69 -55 60 -62 
-1 -61 -73 38 

-46 37 -104 39 
74 -114 66 0 
110 -2 -93 -98 
-58 -54 58 -35 

-43 -27 -20 -44 
-66 -19 -54 21 
28 90 -29 56 
-63 47 118 24 

-15 -21 -86 -18 
-114 -43 -55 7 
-94 -94 -8 96 
33 48 21 59 

-6 18 -64 116 
-81 -96 123 -68 
83 -2 33 -34 
41 105 98 -38 



-6 -44 80 -28 
-3 73 -45 -5 
75 -107 96 0 
104 28 34 -28 

66 106 -1 3 
16 -47 33 -42 
126 54 -92 59 
-93 -101 -114 -104 

108 -20 -12 -32 
-78 33 60 -123 
-113 13 -63 -91 
81 -28 -76 -124 

47 67 40 -74 
94 26 67 114 
69 -55 60 -62 
-1 -61 -73 38 

-46 37 -104 39 
74 -114 66 0 
110 -2 -93 -98 
-58 -54 58 -35 

-43 -27 -20 -44 
-66 -19 -54 21 
28 90 -29 56 
-63 47 118 24 

-15 -21 -86 -18 
-114 -43 -55 7 
-94 -94 -8 96 
33 48 21 59 

-6 18 -64 116 
-81 -96 123 -68 
83 -2 33 -34 
41 105 98 -38 


-6 -44 80 -28 
-3 73 -45 -5 
75 -107 96 0 
104 28 34 -28 

66 106 -1 3 
16 -47 33 -42 
126 54 -92 59 
-93 -101 -114 -104 

108 -20 -12 -32 
-78 33 60 -123 
-113 13 -63 -91 
81 -28 -76 -124 

47 67 40 -74 
94 26 67 114 
69 -55 60 -62 
-1 -61 -73 38 

-46 37 -104 39 
74 -114 66 0 
110 -2 -93 -98 
-58 -54 58 -35 

-43 -27 -20 -44 
-66 -19 -54 21 
28 90 -29 56 
-63 47 118 24 

-15 -21 -86 -18 
-114 -43 -55 7 
-94 -94 -8 96 
33 48 21 59 

-6 18 -64 116 
-81 -96 123 -68 
83 -2 33 -34 
41 105 98 -38 


-6 -44 80 -28 
-3 73 -45 -5 
75 -107 96 0 
104 28 34 -28 

66 106 -1 3 
16 -47 33 -42 
126 54 -92 59 
-93 -101 -114 -104 

108 -20 -12 -32 
-78 33 60 -123 
-113 13 -63 -91 
81 -28 -76 -124 

47 67 40 -74 
94 26 67 114 
69 -55 60 -62 
-1 -61 -73 38 

-46 37 -104 39 
74 -114 66 0 
110 -2 -93 -98 
-58 -54 58 -35 

-43 -27 -20 -44 
-66 -19 -54 21 
28 90 -29 56 
-63 47 118 24 

-15 -21 -86 -18 
-114 -43 -55 7 
-94 -94 -8 96 
33 48 21 59 

-6 18 -64 116 
-81 -96 123 -68 
83 -2 33 -34 
41 105 98 -38 


-6 -44 80 -28 
-3 73 -45 -5 
75 -107 96 0 
104 28 34 -28 

66 106 -1 3 
16 -47 33 -42 
126 54 -92 59 
-93 -101 -114 -104 

108 -20 -12 -32 
-78 33 60 -123 
-113 13 -63 -91 
81 -28 -76 -124 

47 67 40 -74 
94 26 67 114 
69 -55 60 -62 
-1 -61 -73 38 

-46 37 -104 39 
74 -114 66 0 
110 -2 -93 -98 
-58 -54 58 -35 

-43 -27 -20 -44 
-66 -19 -54 21 
28 90 -29 56 
-63 47 118 24 

-15 -21 -86 -18 
-114 -43 -55 7 
-94 -94 -8 96 
33 48 21 59 

-6 18 -64 116 
-81 -96 123 -68 
83 -2 33 -34 
41 105 98 -38 



-6 -44 80 -28 
-3 73 -45 -5 
75 -107 96 0 
104 28 34 -28 

66 106 -1 3 
16 -47 33 -42 
126 54 -92 59 
-93 -101 -114 -104 

108 -20 -12 -32 
-78 33 60 -123 
-113 13 -63 -91 
81 -28 -76 -124 

47 67 40 -74 
94 26 67 114 
69 -55 60 -62 
-1 -61 -73 38 

-46 37 -104 39 
74 -114 66 0 
110 -2 -93 -98 
-58 -54 58 -35 

-43 -27 -20 -44 
-66 -19 -54 21 
28 90 -29 56 
-63 47 118 24 

-15 -21 -86 -18 
-114 -43 -55 7 
-94 -94 -8 96 
33 48 21 59 

-6 18 -64 116 
-81 -96 123 -68 
83 -2 33 -34 
41 105 98 -38 


-6 -44 80 -28 
-3 73 -45 -5 
75 -107 96 0 
104 28 34 -28 

66 106 -1 3 
16 -47 33 -42 
126 54 -92 59 
-93 -101 -114 -104 

108 -20 -12 -32 
-78 33 60 -123 
-113 13 -63 -91 
81 -28 -76 -124 

47 67 40 -74 
94 26 67 114 
69 -55 60 -62 
-1 -61 -73 38 

-46 37 -104 39 
74 -114 66 0 
110 -2 -93 -98 
-58 -54 58 -35 

-43 -27 -20 -44 
-66 -19 -54 21 
28 90 -29 56 
-63 47 118 24 

-15 -21 -86 -18 
-114 -43 -55 7 
-94 -94 -8 96 
33 48 21 59 

-6 18 -64 116 
-81 -96 123 -68 
83 -2 33 -34 
41 105 98 -38 


-6 -44 80 -28 
-3 73 -45 -5 
75 -107 96 0 
104 28 34 -28 

66 106 -1 3 
16 -47 33 -42 
126 54 -92 59 
-93 -101 -114 -104 

108 -20 -12 -32 
-78 33 60 -123 
-113 13 -63 -91 
81 -28 -76 -124 

47 67 40 -74 
94 26 67 114 
69 -55 60 -62 
-1 -61 -73 38 

-46 37 -104 39 
74 -114 66 0 
110 -2 -93 -98 
-58 -54 58 -35 

-43 -27 -20 -44 
-66 -19 -54 21 
28 90 -29 56 
-63 47 118 24 

-15 -21 -86 -18 
-114 -43 -55 7 
-94 -94 -8 96 
33 48 21 59 

-6 18 -64 116 
-81 -96 123 -68 
83 -2 33 -34 
41 105 98 -38 


-6 -44 80 -28 
-3 73 -45 -5 
75 -107 96 0 
104 28 34 -28 

66 106 -1 3 
16 -47 33 -42 
126 54 -92 59 
-93 -101 -114 -104 

108 -20 -12 -32 
-78 33 60 -123 
-113 13 -63 -91 
81 -28 -76 -124 

47 67 40 -74 
94 26 67 114 
69 -55 60 -62 
-1 -61 -73 38 

-46 37 -104 39 
74 -114 66 0 
110 -2 -93 -98 
-58 -54 58 -35 

-43 -27 -20 -44 
-66 -19 -54 21 
28 90 -29 56 
-63 47 118 24 

-15 -21 -86 -18 
-114 -43 -55 7 
-94 -94 -8 96 
33 48 21 59 

-6 18 -64 116 
-81 -96 123 -68 
83 -2 33 -34 
41 105 98 -38 



-6 -44 80 -28 
-3 73 -45 -5 
75 -107 96 0 
104 28 34 -28 

66 106 -1 3 
16 -47 33 -42 
126 54 -92 59 
-93 -101 -114 -104 

108 -20 -12 -32 
-78 33 60 -123 
-113 13 -63 -91 
81 -28 -76 -124 

47 67 40 -74 
94 26 67 114 
69 -55 60 -62 
-1 -61 -73 38 

-46 37 -104 39 
74 -114 66 0 
110 -2 -93 -98 
-58 -54 58 -35 

-43 -27 -20 -44 
-66 -19 -54 21 
28 90 -29 56 
-63 47 118 24 

-15 -21 -86 -18 
-114 -43 -55 7 
-94 -94 -8 96 
33 48 21 59 

-6 18 -64 116 
-81 -96 123 -68 
83 -2 33 -34 
41 105 98 -38 


-6 -44 80 -28 
-3 73 -45 -5 
75 -107 96 0 
104 28 34 -28 

66 106 -1 3 
16 -47 33 -42 
126 54 -92 59 
-93 -101 -114 -104 

108 -20 -12 -32 
-78 33 60 -123 
-113 13 -63 -91 
81 -28 -76 -124 

47 67 40 -74 
94 26 67 114 
69 -55 60 -62 
-1 -61 -73 38 

-46 37 -104 39 
74 -114 66 0 
110 -2 -93 -98 
-58 -54 58 -35 

-43 -27 -20 -44 
-66 -19 -54 21 
28 90 -29 56 
-63 47 118 24 

-15 -21 -86 -18 
-114 -43 -55 7 
-94 -94 -8 96 
33 48 21 59 

-6 18 -64 116 
-81 -96 123 -68 
83 -2 33 -34 
41 105 98 -38 


-6 -44 80 -28 
-3 73 -45 -5 
75 -107 96 0 
104 28 34 -28 

66 106 -1 3 
16 -47 33 -42 
126 54 -92 59 
-93 -101 -114 -104 

108 -20 -12 -32 
-78 33 60 -123 
-113 13 -63 -91 
81 -28 -76 -124 

47 67 40 -74 
94 26 67 114 
69 -55 60 -62 
-1 -61 -73 38 

-46 37 -104 39 
74 -114 66 0 
110 -2 -93 -98 
-58 -54 58 -35 

-43 -27 -20 -44 
-66 -19 -54 21 
28 90 -29 56 
-63 47 118 24 

-15 -21 -86 -18 
-114 -43 -55 7 
-94 -94 -8 96 
33 48 21 59 

-6 18 -64 116 
-81 -96 123 -68 
83 -2 33 -34 
41 105 98 -38 


-6 -44 80 -28 
-3 73 -45 -5 
75 -107 96 0 
104 28 34 -28 

66 106 -1 3 
16 -47 33 -42 
126 54 -92 59 
-93 -101 -114 -104 

108 -20 -12 -32 
-78 33 60 -123 
-113 13 -63 -91 
81 -28 -76 -124 

47 67 40 -74 
94 26 67 114 
69 -55 60 -62 
-1 -61 -73 38 

-46 37 -104 39 
74 -114 66 0 
110 -2 -93 -98 
-58 -54 58 -35 

-43 -27 -20 -44 
-66 -19 -54 21 
28 90 -29 56 
-63 47 118 24 

-15 -21 -86 -18 
-114 -43 -55 7 
-94 -94 -8 96 
33 48 21 59 

-6 18 -64 116 
-81 -96 123 -68 
83 -2 33 -34 
41 105 98 -38 



-6 -44 80 -28 
-3 73 -45 -5 
75 -107 96 0 
104 28 34 -28 

66 106 -1 3 
16 -47 33 -42 
126 54 -92 59 
-93 -101 -114 -104 

108 -20 -12 -32 
-78 33 60 -123 
-113 13 -63 -91 
81 -28 -76 -124 

47 67 40 -74 
94 26 67 114 
69 -55 60 -62 
-1 -61 -73 38 

-46 37 -104 39 
74 -114 66 0 
110 -2 -93 -98 
-58 -54 58 -35 

-43 -27 -20 -44 
-66 -19 -54 21 
28 90 -29 56 
-63 47 118 24 

-15 -21 -86 -18 
-114 -43 -55 7 
-94 -94 -8 96 
33 48 21 59 

-6 18 -64 116 
-81 -96 123 -68 
83 -2 33 -34 
41 105 98 -38 


-6 -44 80 -28 
-3 73 -45 -5 
75 -107 96 0 
104 28 34 -28 

66 106 -1 3 
16 -47 33 -42 
126 54 -92 59 
-93 -101 -114 -104 

108 -20 -12 -32 
-78 33 60 -123 
-113 13 -63 -91 
81 -28 -76 -124 

47 67 40 -74 
94 26 67 114 
69 -55 60 -62 
-1 -61 -73 38 

-46 37 -104 39 
74 -114 66 0 
110 -2 -93 -98 
-58 -54 58 -35 

-43 -27 -20 -44 
-66 -19 -54 21 
28 90 -29 56 
-63 47 118 24 

-15 -21 -86 -18 
-114 -43 -55 7 
-94 -94 -8 96 
33 48 21 59 

-6 18 -64 116 
-81 -96 123 -68 
83 -2 33 -34 
41 105 98 -38 


-6 -44 80 -28 
-3 73 -45 -5 
75 -107 96 0 
104 28 34 -28 

66 106 -1 3 
16 -47 33 -42 
126 54 -92 59 
-93 -101 -114 -104 

108 -20 -12 -32 
-78 33 60 -123 
-113 13 -63 -91 
81 -28 -76 -124 

47 67 40 -74 
94 26 67 114 
69 -55 60 -62 
-1 -61 -73 38 

-46 37 -104 39 
74 -114 66 0 
110 -2 -93 -98 
-58 -54 58 -35 

-43 -27 -20 -44 
-66 -19 -54 21 
28 90 -29 56 
-63 47 118 24 

-15 -21 -86 -18 
-114 -43 -55 7 
-94 -94 -8 96 
33 48 21 59 

-6 18 -64 116 
-81 -96 123 -68 
83 -2 33 -34 
41 105 98 -38 


-6 -44 80 -28 
-3 73 -45 -5 
75 -107 96 0 
104 28 34 -28 

66 106 -1 3 
16 -47 33 -42 
126 54 -92 59 
-93 -101 -114 -104 

108 -20 -12 -32 
-78 33 60 -123 
-113 13 -63 -91 
81 -28 -76 -124 

47 67 40 -74 
94 26 67 114 
69 -55 60 -62 
-1 -61 -73 38 

-46 37 -104 39 
74 -114 66 0 
110 -2 -93 -98 
-58 -54 58 -35 

-43 -27 -20 -44 
-66 -19 -54 21 
28 90 -29 56 
-63 47 118 24 

-15 -21 -86 -18 
-114 -43 -55 7 
-94 -94 -8 96 
33 48 21 59 

-6 18 -64 116 
-81 -96 123 -68 
83 -2 33 -34 
41 105 98 -38 



-6 -44 80 -28 
-3 73 -45 -5 
75 -107 96 0 
104 28 34 -28 

66 106 -1 3 
16 -47 33 -42 
126 54 -92 59 
-93 -101 -114 -104 

108 -20 -12 -32 
-78 33 60 -123 
-113 13 -63 -91 
81 -28 -76 -124 

47 67 40 -74 
94 26 67 114 
69 -55 60 -62 
-1 -61 -73 38 

-46 37 -104 39 
74 -114 66 0 
110 -2 -93 -98 
-58 -54 58 -35 

-43 -27 -20 -44 
-66 -19 -54 21 
28 90 -29 56 
-63 47 118 24 

-15 -21 -86 -18 
-114 -43 -55 7 
-94 -94 -8 96 
33 48 21 59 

-6 18 -64 116 
-81 -96 123 -68 
83 -2 33 -34 
41 105 98 -38 


-6 -44 80 -28 
-3 73 -45 -5 
75 -107 96 0 
104 28 34 -28 

66 106 -1 3 
16 -47 33 -42 
126 54 -92 59 
-93 -101 -114 -104 

108 -20 -12 -32 
-78 33 60 -123 
-113 13 -63 -91 
81 -28 -76 -124 

47 67 40 -74 
94 26 67 114 
69 -55 60 -62 
-1 -61 -73 38 

-46 37 -104 39 
74 -114 66 0 
110 -2 -93 -98 
-58 -54 58 -35 

-43 -27 -20 -44 
-66 -19 -54 21 
28 90 -29 56 
-63 47 118 24 

-15 -21 -86 -18 
-114 -43 -55 7 
-94 -94 -8 96 
33 48 21 59 

-6 18 -64 116 
-81 -96 123 -68 
83 -2 33 -34 
41 105 98 -38 


-6 -44 80 -28 
-3 73 -45 -5 
75 -107 96 0 
104 28 34 -28 

66 106 -1 3 
16 -47 33 -42 
126 54 -92 59 
-93 -101 -114 -104 

108 -20 -12 -32 
-78 33 60 -123 
-113 13 -63 -91 
81 -28 -76 -124 

47 67 40 -74 
94 26 67 114 
69 -55 60 -62 
-1 -61 -73 38 

-46 37 -104 39 
74 -114 66 0 
110 -2 -93 -98 
-58 -54 58 -35 

-43 -27 -20 -44 
-66 -19 -54 21 
28 90 -29 56 
-63 47 118 24 

-15 -21 -86 -18 
-114 -43 -55 7 
-94 -94 -8 96 
33 48 21 59 

-6 18 -64 116 
-81 -96 123 -68 
83 -2 33 -34 
41 105 98 -38 


-6 -44 80 -28 
-3 73 -45 -5 
75 -107 96 0 
104 28 34 -28 

66 106 -1 3 
16 -47 33 -42 
126 54 -92 59 
-93 -101 -114 -104 

108 -20 -12 -32 
-78 33 60 -123 
-113 13 -63 -91 
81 -28 -76 -124 

47 67 40 -74 
94 26 67 114 
69 -55 60 -62 
-1 -61 -73 38 

-46 37 -104 39 
74 -114 66 0 
110 -2 -93 -98 
-58 -54 58 -35 

-43 -27 -20 -44 
-66 -19 -54 21 
28 90 -29 56 
-63 47 118 24 

-15 -21 -86 -18 
-114 -43 -55 7 
-94 -94 -8 96 
33 48 21 59 

-6 18 -64 116 
-81 -96 123 -68 
83 -2 33 -34 
41 105 98 -38 



-6 -44 80 -28 
-3 73 -45 -5 
75 -107 96 0 
104 28 34 -28 

66 106 -1 3 
16 -47 33 -42 
126 54 -92 59 
-93 -101 -114 -104 

108 -20 -12 -32 
-78 33 60 -123 
-113 13 -63 -91 
81 -28 -76 -124 

47 67 40 -74 
94 26 67 114 
69 -55 60 -62 
-1 -61 -73 38 

-46 37 -104 39 
74 -114 66 0 
110 -2 -93 -98 
-58 -54 58 -35 

-43 -27 -20 -44 
-66 -19 -54 21 
28 90 -29 56 
-63 47 118 24 

-15 -21 -86 -18 
-114 -43 -55 7 
-94 -94 -8 96 
33 48 21 59 

-6 18 -64 116 
-81 -96 123 -68 
83 -2 33 -34 
41 105 98 -38 


-6 -44 80 -28 
-3 73 -45 -5 
75 -107 96 0 
104 28 34 -28 

66 106 -1 3 
16 -47 33 -42 
126 54 -92 59 
-93 -101 -114 -104 

108 -20 -12 -32 
-78 33 60 -123 
-113 13 -63 -91 
81 -28 -76 -124 

47 67 40 -74 
94 26 67 114 
69 -55 60 -62 
-1 -61 -73 38 

-46 37 -104 39 
74 -114 66 0 
110 -2 -93 -98 
-58 -54 58 -35 

-43 -27 -20 -44 
-66 -19 -54 21 
28 90 -29 56 
-63 47 118 24 

-15 -21 -86 -18 
-114 -43 -55 7 
-94 -94 -8 96 
33 48 21 59 

-6 18 -64 116 
-81 -96 123 -68 
